{"learner":{"attributes":{"scikit_learn":"{\"_estimator_type\": \"classifier\"}"},"feature_names":["gender","height_cm","weight_kg","ap_hi","ap_lo","cholesterol","gluc","smoke","alco","active","age_years","bmi","pulse_pressure","hypertension"],"feature_types":["int","int","float","int","int","int","int","int","int","int","int","float","int","int"],"gradient_booster":{"model":{"gbtree_model_param":{"num_parallel_tree":"1","num_trees":"100"},"iteration_indptr":[0,1,2,3,4,5,6,7,8,9,10,11,12,13,14,15,16,17,18,19,20,21,22,23,24,25,26,27,28,29,30,31,32,33,34,35,36,37,38,39,40,41,42,43,44,45,46,47,48,49,50,51,52,53,54,55,56,57,58,59,60,61,62,63,64,65,66,67,68,69,70,71,72,73,74,75,76,77,78,79,80,81,82,83,84,85,86,87,88,89,90,91,92,93,94,95,96,97,98,99,100],"tree_info":[0,0,0,0,0,0,0,0,0,0,0,0,0,0,0,0,0,0,0,0,0,0,0,0,0,0,0,0,0,0,0,0,0,0,0,0,0,0,0,0,0,0,0,0,0,0,0,0,0,0,0,0,0,0,0,0,0,0,0,0,0,0,0,0,0,0,0,0,0,0,0,0,0,0,0,0,0,0,0,0,0,0,0,0,0,0,0,0,0,0,0,0,0,0,0,0,0,0,0,0],"trees":[{"base_weights":[-1.9167123E-7,-7.1188277E-1,1.0445126E0,-1.0339864E0,-1.8624397E-1,4.0168104E-1,1.3604723E0,-1.0947647E0,3.0866978E-1,-3.062728E-1,8.2985413E-1,2.1910651E-1,1.2204235E0,1.2726996E0,1.4560244E0,-1.3921095E0,-9.6180534E-1,9.5928276E-1,-1.8758203E-1,-4.6194854E-1,1.2501347E-1,3.5477394E-1,1.004106E0,1.2902907E-1,6.3745505E-1,1.3384256E0,1.0273473E0,1.2972996E0,1.0595796E0,7.518492E-1,1.4611897E0,-1.4464643E0,-8.770082E-1,-1.186265E0,-8.5364133E-1,2.4075429E-1,1.0879474E0,-3.189012E-1,9.9869686E-1,-7.8075206E-1,-3.5846823E-1,4.7275737E-1,3.2604236E-2,9.11719E-2,9.3806E-1,7.16155E-1,1.203998E0,4.017401E-1,-4.909351E-2,6.5352964E-1,-2.960663E-1,4.140677E-1,8.9693296E-1,8.353167E-1,1.3291355E0,6.0728216E-1,1.3067795E0,9.9197376E-1,1.4528306E0,1.0182091E0,-2.3519352E-1,1.4797603E0,1.2617998E0,-4.833426E-1,-3.979961E-1,-3.1016487E-1,-1.2364907E-1,-4.3251026E-1,-3.1769362E-1,-2.8488722E-1,-1.7771083E-1,-6.1620753E-2,1.5535021E-1,1.719248E-1,3.7376904E-1,-2.7918476E-1,-4.4140663E-2,-1.9671653E-1,3.7066436E-1,-2.4925056E-1,2.7148852E-2,-5.6843655E-3,-1.3314989E-1,-2.280825E-1,1.6358407E-1,-1.9429158E-1,2.0528553E-2,-2.6207477E-1,4.8872087E-2,1.3861603E-1,3.3224237E-1,1.8588158E-1,4.2284295E-1,4.0959954E-1,2.8954008E-1,2.1740445E-1,9.39752E-2,1.373504E-2,-6.534192E-2,2.1408865E-2,2.08777E-1,5.976135E-2,3.7910116E-1,4.277512E-1,2.1298306E-1,4.1108027E-1,3.5579016E-3,-2.4665631E-2,2.9650646E-1,3.8186368E-1,4.3789378E-1,2.1137813E-1,3.1676278E-1,4.645641E-1,1.2435721E-1,9.9425696E-2,3.870622E-1,-1.5987301E-1,6.9964625E-2,2.74648E-1,4.4596934E-1,3.9586785E-1,2.6465198E-1],"categories":[],"categories_nodes":[],"categories_segments":[],"categories_sizes":[],"default_left":[0,0,0,0,0,0,0,0,0,0,0,0,0,0,0,0,0,0,0,0,0,0,0,0,0,0,0,0,0,0,0,0,0,0,0,0,0,0,0,0,0,0,0,0,0,0,0,0,0,0,0,0,0,0,0,0,0,0,0,0,0,0,0,0,0,0,0,0,0,0,0,0,0,0,0,0,0,0,0,0,0,0,0,0,0,0,0,0,0,0,0,0,0,0,0,0,0,0,0,0,0,0,0,0,0,0,0,0,0,0,0,0,0,0,0,0,0,0,0,0,0,0,0],"id":0,"left_children":[1,3,5,7,9,11,13,15,17,19,21,23,25,27,29,31,33,35,37,39,41,43,45,47,49,51,53,55,57,59,61,63,65,67,69,71,73,75,77,79,81,83,85,87,89,91,93,95,97,99,-1,-1,101,103,105,107,109,111,113,115,117,119,121,-1,-1,-1,-1,-1,-1,-1,-1,-1,-1,-1,-1,-1,-1,-1,-1,-1,-1,-1,-1,-1,-1,-1,-1,-1,-1,-1,-1,-1,-1,-1,-1,-1,-1,-1,-1,-1,-1,-1,-1,-1,-1,-1,-1,-1,-1,-1,-1,-1,-1,-1,-1,-1,-1,-1,-1,-1,-1,-1,-1],"loss_changes":[1.0195584E4,1.380397E3,1.1282212E3,4.1290918E2,3.7826608E2,2.737054E2,2.9393555E1,1.8989209E2,7.112325E1,1.8622101E2,2.6773453E1,5.6437874E1,6.2338867E0,8.848145E0,5.3640137E0,4.051465E1,8.021509E1,8.543015E0,1.986713E1,6.693869E1,2.364148E1,1.3674252E1,1.290744E1,6.0029495E1,7.5766907E0,2.5263672E0,6.480789E0,1.0611816E1,4.0682526E0,4.182746E0,4.6601562E0,2.4466064E1,1.0146591E1,3.3763184E1,5.6144897E1,2.053217E0,5.8318405E0,1.1813808E1,5.8058214E0,2.1825043E1,4.4628357E1,1.4229084E1,1.4244082E1,4.4846163E0,1.7259064E0,5.853504E0,4.0672913E0,1.3724304E1,1.1986015E1,6.4529114E0,0E0,0E0,4.993389E0,5.1135826E0,2.65197E0,6.780754E0,7.0507812E0,2.561264E0,2.1654015E0,1.8138676E0,6.820542E-1,4.8083496E0,2.2781677E0,0E0,0E0,0E0,0E0,0E0,0E0,0E0,0E0,0E0,0E0,0E0,0E0,0E0,0E0,0E0,0E0,0E0,0E0,0E0,0E0,0E0,0E0,0E0,0E0,0E0,0E0,0E0,0E0,0E0,0E0,0E0,0E0,0E0,0E0,0E0,0E0,0E0,0E0,0E0,0E0,0E0,0E0,0E0,0E0,0E0,0E0,0E0,0E0,0E0,0E0,0E0,0E0,0E0,0E0,0E0,0E0,0E0,0E0,0E0,0E0],"parents":[2147483647,0,0,1,1,2,2,3,3,4,4,5,5,6,6,7,7,8,8,9,9,10,10,11,11,12,12,13,13,14,14,15,15,16,16,17,17,18,18,19,19,20,20,21,21,22,22,23,23,24,24,25,25,26,26,27,27,28,28,29,29,30,30,31,31,32,32,33,33,34,34,35,35,36,36,37,37,38,38,39,39,40,40,41,41,42,42,43,43,44,44,45,45,46,46,47,47,48,48,49,49,52,52,53,53,54,54,55,55,56,56,57,57,58,58,59,59,60,60,61,61,62,62],"right_children":[2,4,6,8,10,12,14,16,18,20,22,24,26,28,30,32,34,36,38,40,42,44,46,48,50,52,54,56,58,60,62,64,66,68,70,72,74,76,78,80,82,84,86,88,90,92,94,96,98,100,-1,-1,102,104,106,108,110,112,114,116,118,120,122,-1,-1,-1,-1,-1,-1,-1,-1,-1,-1,-1,-1,-1,-1,-1,-1,-1,-1,-1,-1,-1,-1,-1,-1,-1,-1,-1,-1,-1,-1,-1,-1,-1,-1,-1,-1,-1,-1,-1,-1,-1,-1,-1,-1,-1,-1,-1,-1,-1,-1,-1,-1,-1,-1,-1,-1,-1,-1,-1,-1],"split_conditions":[1.3E2,5.5E1,1.39E2,3E0,3E0,3E0,1.49E2,4.5E1,3E0,6.1E1,2.4386526E1,6.1E1,3E0,3E0,6.9E1,2E0,1.19E2,2.2862368E1,3.2873108E1,1.19E2,1E0,6.1E1,5.9E1,4.1E1,1.84E2,1E0,3.075987E1,1.48E2,6.3E1,1.73E2,3E0,1.15E2,8.11E1,6.27E1,2.7993023E1,4.8E1,7.6E1,1.16E2,7.1E1,9.2E1,1E0,5.52E1,2.0715694E1,1.03E2,1E0,3.6051914E1,3E0,1E0,2E0,2.2405876E1,-2.960663E-1,4.140677E-1,1.69E2,1.57E2,1.79E2,8.1E1,6.1E1,2E0,9.1E1,9.8E1,5.9E1,5.15E1,1.02E2,-4.833426E-1,-3.979961E-1,-3.1016487E-1,-1.2364907E-1,-4.3251026E-1,-3.1769362E-1,-2.8488722E-1,-1.7771083E-1,-6.1620753E-2,1.5535021E-1,1.719248E-1,3.7376904E-1,-2.7918476E-1,-4.4140663E-2,-1.9671653E-1,3.7066436E-1,-2.4925056E-1,2.7148852E-2,-5.6843655E-3,-1.3314989E-1,-2.280825E-1,1.6358407E-1,-1.9429158E-1,2.0528553E-2,-2.6207477E-1,4.8872087E-2,1.3861603E-1,3.3224237E-1,1.8588158E-1,4.2284295E-1,4.0959954E-1,2.8954008E-1,2.1740445E-1,9.39752E-2,1.373504E-2,-6.534192E-2,2.1408865E-2,2.08777E-1,5.976135E-2,3.7910116E-1,4.277512E-1,2.1298306E-1,4.1108027E-1,3.5579016E-3,-2.4665631E-2,2.9650646E-1,3.8186368E-1,4.3789378E-1,2.1137813E-1,3.1676278E-1,4.645641E-1,1.2435721E-1,9.9425696E-2,3.870622E-1,-1.5987301E-1,6.9964625E-2,2.74648E-1,4.4596934E-1,3.9586785E-1,2.6465198E-1],"split_indices":[3,10,3,5,5,5,3,10,6,10,11,10,6,6,4,5,3,11,11,3,9,10,10,12,1,7,11,1,10,1,6,3,2,2,11,10,4,3,4,2,9,2,11,3,9,11,6,9,0,11,0,0,1,1,1,4,10,5,4,12,10,2,2,0,0,0,0,0,0,0,0,0,0,0,0,0,0,0,0,0,0,0,0,0,0,0,0,0,0,0,0,0,0,0,0,0,0,0,0,0,0,0,0,0,0,0,0,0,0,0,0,0,0,0,0,0,0,0,0,0,0,0,0],"split_type":[0,0,0,0,0,0,0,0,0,0,0,0,0,0,0,0,0,0,0,0,0,0,0,0,0,0,0,0,0,0,0,0,0,0,0,0,0,0,0,0,0,0,0,0,0,0,0,0,0,0,0,0,0,0,0,0,0,0,0,0,0,0,0,0,0,0,0,0,0,0,0,0,0,0,0,0,0,0,0,0,0,0,0,0,0,0,0,0,0,0,0,0,0,0,0,0,0,0,0,0,0,0,0,0,0,0,0,0,0,0,0,0,0,0,0,0,0,0,0,0,0,0,0],"sum_hessian":[1.370966E4,8.153203E3,5.556457E3,5.054756E3,3.098447E3,1.8318209E3,3.724636E3,4.8360273E3,2.1872862E2,2.771729E3,3.2671805E2,1.4988535E3,3.3296744E2,1.9488094E3,1.7758264E3,1.4913542E3,3.344673E3,9.424078E1,1.2448783E2,2.0365509E3,7.351781E2,8.849135E1,2.3822672E2,1.2343793E3,2.6447415E2,2.0298016E2,1.2998729E2,1.7425796E3,2.0622984E2,1.39986315E1,1.7618278E3,1.3473683E3,1.4398593E2,1.084394E3,2.260279E3,1.4748558E1,7.9492226E1,1.12738976E2,1.1748852E1,4.9745135E2,1.5390995E3,1.53485E2,5.816931E2,6.1743965E1,2.6747385E1,9.949027E1,1.3873643E2,4.8720236E2,7.4717694E2,2.6247433E2,1.9998045E0,1.8348206E2,1.9498095E1,8.174201E1,4.8245285E1,2.4497604E1,1.718082E3,1.789825E2,2.7247335E1,1.0998924E1,2.9997067E0,1.605843E3,1.5598476E2,5.6219507E2,7.851732E2,1.0673956E2,3.7246357E1,3.572151E2,7.271789E2,1.6510886E3,6.091904E2,5.749438E0,8.999121E0,1.974807E1,5.974416E1,2.3747679E1,8.89913E1,1.2498778E0,1.0498974E1,4.70454E2,2.699736E1,3.0946976E2,1.2296298E3,7.999218E0,1.4548578E2,2.8247238E1,5.534459E2,3.4996579E0,5.8244305E1,7.999218E0,1.8748167E1,8.89913E1,1.0498974E1,7.999218E1,5.874426E1,1.0323991E2,3.8396246E2,4.7870322E2,2.6847375E2,1.7998241E1,2.444761E2,7.2492914E0,1.2248802E1,1.2498778E1,6.924323E1,4.674543E1,1.4998534E0,8.999121E0,1.5498485E1,1.4138618E3,3.0422025E2,3.4746605E1,1.442359E2,2.4497604E1,2.749731E0,3.7496333E0,7.2492914E0,1.7498289E0,1.2498778E0,2.0747972E1,1.5850951E3,1.3323697E2,2.2747776E1],"tree_param":{"num_deleted":"0","num_feature":"14","num_nodes":"123","size_leaf_vector":"1"}},{"base_weights":[3.5486862E-4,-5.120185E-1,7.5660807E-1,-8.116992E-1,-2.022276E-1,2.8536135E-1,9.952819E-1,-9.0191627E-1,-2.7297106E-1,-2.8181133E-1,5.5719113E-1,1.5405008E-1,8.911243E-1,9.2595226E-1,1.0715722E0,-1.1420431E0,-8.210594E-1,-4.6044016E-1,1.9915044E-1,-4.3211153E-1,-3.242324E-2,4.083155E-1,9.0329725E-1,6.2273826E-2,3.8153577E-1,9.810086E-1,7.461853E-1,9.445645E-1,7.6658326E-1,1.0742673E0,1.4144352E-1,-1.2621126E0,-1.019039E0,-8.3967435E-1,1.1530748E-1,-9.543053E-1,-3.7418783E-1,6.9567156E-1,-1.7703782E-1,-1.6716646E-1,-4.984838E-1,-4.680424E-1,1.4163722E-2,6.8351394E-1,1.6823286E-1,9.4076896E-1,-1.5915899E-1,-7.6630004E-2,2.651111E-1,2.701555E-1,5.2079254E-1,8.4019816E-1,1.0723699E0,2.3363835E-1,8.110638E-1,8.9772403E-1,1.037747E0,7.9610723E-1,1.5248701E-1,1.0890101E0,9.1819316E-1,6.4024156E-1,-1.8463808E-1,4.1114755E-2,-3.8031244E-1,-3.17383E-1,-1.2950952E-1,-3.0321118E-1,-2.2550581E-1,2.3975709E-1,-3.4054462E-2,-1.7011766E-1,-3.107095E-1,-7.5277183E-3,-1.3782382E-1,2.4234729E-1,-4.3457992E-2,-1.0674476E-1,1.5873459E-1,-7.666624E-2,7.213957E-2,-1.6078869E-1,-1.1759007E-2,-2.515436E-1,-7.650791E-2,-1.9304805E-2,6.914365E-2,-4.433582E-2,2.2665684E-1,1.14647925E-1,-2.483686E-2,2.0883352E-1,3.2151952E-1,1.842609E-1,-2.1182375E-1,-1.4795703E-1,-1.169749E-2,1.6902179E-1,5.508553E-2,1.02647E-1,-1.44419065E-2,-4.5774353E-4,1.6775474E-1,2.220242E-1,3.407891E-1,-5.54661E-3,3.3016917E-1,-4.5420215E-2,2.8416827E-1,3.1037977E-1,2.0607837E-1,2.733623E-1,1.19492665E-1,5.4282308E-2,3.151583E-1,2.4583848E-1,1.3154547E-2,-1.2559423E-1,2.483869E-1,2.1171342E-1,3.2906294E-1,3.0713877E-1,2.1067978E-1,3.3131072E-1,-7.771103E-2],"categories":[],"categories_nodes":[],"categories_segments":[],"categories_sizes":[],"default_left":[0,0,0,0,0,0,0,0,0,0,0,0,0,0,0,0,0,0,0,0,0,0,0,0,0,0,0,0,0,0,0,0,0,0,0,0,0,0,0,0,0,0,0,0,0,0,0,0,0,0,0,0,0,0,0,0,0,0,0,0,0,0,0,0,0,0,0,0,0,0,0,0,0,0,0,0,0,0,0,0,0,0,0,0,0,0,0,0,0,0,0,0,0,0,0,0,0,0,0,0,0,0,0,0,0,0,0,0,0,0,0,0,0,0,0,0,0,0,0,0,0,0,0,0,0],"id":1,"left_children":[1,3,5,7,9,11,13,15,17,19,21,23,25,27,29,31,33,35,37,39,41,43,45,47,49,51,53,55,57,59,61,63,65,67,69,71,73,75,77,79,81,83,85,87,89,91,93,95,97,99,101,103,105,107,109,111,113,115,117,119,121,123,-1,-1,-1,-1,-1,-1,-1,-1,-1,-1,-1,-1,-1,-1,-1,-1,-1,-1,-1,-1,-1,-1,-1,-1,-1,-1,-1,-1,-1,-1,-1,-1,-1,-1,-1,-1,-1,-1,-1,-1,-1,-1,-1,-1,-1,-1,-1,-1,-1,-1,-1,-1,-1,-1,-1,-1,-1,-1,-1,-1,-1,-1,-1],"loss_changes":[5.1854976E3,7.404595E2,6.076301E2,1.9681812E2,2.3730995E2,1.4451462E2,1.7982178E1,6.648584E1,5.1695114E1,1.3314096E2,1.882708E1,3.1204403E1,3.4858704E0,4.8724365E0,4.1134033E0,1.1595337E1,4.5440308E1,1.7432564E1,3.1205862E1,3.889322E1,2.7138702E1,1.7216438E1,4.5778275E0,3.0082296E1,6.5254135E0,1.6289062E0,4.0704727E0,6.423828E0,3.5521927E0,2.9036865E0,2.684907E0,3.5962524E0,9.50647E0,3.762622E1,8.163408E0,1.3494873E0,1.061512E1,6.898136E0,1.2241352E1,1.6113548E1,3.0480042E1,9.980707E0,2.0543633E1,7.408352E0,7.626151E0,2.7009354E0,2.3981218E0,9.922142E0,1.0444336E1,5.5366287E0,3.808941E0,1.5875893E0,3.5773163E0,4.484188E0,2.4334564E0,7.2387695E0,5.912842E0,3.3563004E0,4.409446E0,3.8834229E0,2.7652588E0,2.0172234E0,0E0,0E0,0E0,0E0,0E0,0E0,0E0,0E0,0E0,0E0,0E0,0E0,0E0,0E0,0E0,0E0,0E0,0E0,0E0,0E0,0E0,0E0,0E0,0E0,0E0,0E0,0E0,0E0,0E0,0E0,0E0,0E0,0E0,0E0,0E0,0E0,0E0,0E0,0E0,0E0,0E0,0E0,0E0,0E0,0E0,0E0,0E0,0E0,0E0,0E0,0E0,0E0,0E0,0E0,0E0,0E0,0E0,0E0,0E0,0E0,0E0,0E0,0E0],"parents":[2147483647,0,0,1,1,2,2,3,3,4,4,5,5,6,6,7,7,8,8,9,9,10,10,11,11,12,12,13,13,14,14,15,15,16,16,17,17,18,18,19,19,20,20,21,21,22,22,23,23,24,24,25,25,26,26,27,27,28,28,29,29,30,30,31,31,32,32,33,33,34,34,35,35,36,36,37,37,38,38,39,39,40,40,41,41,42,42,43,43,44,44,45,45,46,46,47,47,48,48,49,49,50,50,51,51,52,52,53,53,54,54,55,55,56,56,57,57,58,58,59,59,60,60,61,61],"right_children":[2,4,6,8,10,12,14,16,18,20,22,24,26,28,30,32,34,36,38,40,42,44,46,48,50,52,54,56,58,60,62,64,66,68,70,72,74,76,78,80,82,84,86,88,90,92,94,96,98,100,102,104,106,108,110,112,114,116,118,120,122,124,-1,-1,-1,-1,-1,-1,-1,-1,-1,-1,-1,-1,-1,-1,-1,-1,-1,-1,-1,-1,-1,-1,-1,-1,-1,-1,-1,-1,-1,-1,-1,-1,-1,-1,-1,-1,-1,-1,-1,-1,-1,-1,-1,-1,-1,-1,-1,-1,-1,-1,-1,-1,-1,-1,-1,-1,-1,-1,-1,-1,-1,-1,-1],"split_conditions":[1.3E2,5.3E1,1.39E2,2E0,3E0,3E0,1.49E2,4.3E1,3E0,5.9E1,6.1E1,5.9E1,3E0,3E0,1.13E2,2.4567474E1,1.02E2,2.2481329E1,3E0,1E0,2.1875E1,3E0,1.064E2,9E1,6.2E1,4.2E1,2.3733238E1,2E0,1.78E2,3E0,2.657313E1,1.1E1,2E0,1.19E2,1E0,1E0,1E0,5.2E1,2.903179E1,8.24E1,3.3284023E1,7.3E1,6.3E1,1.03E2,1.65E2,2.5593737E1,6.2E1,4.3E1,1E0,8.8E1,2.2405876E1,3.3874065E1,2.0829996E1,8.6E1,1.6E2,1.44E2,1.47E2,1.146E2,9.8E1,2.0715694E1,1.67E2,1.72E2,-1.8463808E-1,4.1114755E-2,-3.8031244E-1,-3.17383E-1,-1.2950952E-1,-3.0321118E-1,-2.2550581E-1,2.3975709E-1,-3.4054462E-2,-1.7011766E-1,-3.107095E-1,-7.5277183E-3,-1.3782382E-1,2.4234729E-1,-4.3457992E-2,-1.0674476E-1,1.5873459E-1,-7.666624E-2,7.213957E-2,-1.6078869E-1,-1.1759007E-2,-2.515436E-1,-7.650791E-2,-1.9304805E-2,6.914365E-2,-4.433582E-2,2.2665684E-1,1.14647925E-1,-2.483686E-2,2.0883352E-1,3.2151952E-1,1.842609E-1,-2.1182375E-1,-1.4795703E-1,-1.169749E-2,1.6902179E-1,5.508553E-2,1.02647E-1,-1.44419065E-2,-4.5774353E-4,1.6775474E-1,2.220242E-1,3.407891E-1,-5.54661E-3,3.3016917E-1,-4.5420215E-2,2.8416827E-1,3.1037977E-1,2.0607837E-1,2.733623E-1,1.19492665E-1,5.4282308E-2,3.151583E-1,2.4583848E-1,1.3154547E-2,-1.2559423E-1,2.483869E-1,2.1171342E-1,3.2906294E-1,3.0713877E-1,2.1067978E-1,3.3131072E-1,-7.771103E-2],"split_indices":[3,10,3,5,5,5,3,10,5,10,10,10,6,6,12,11,2,11,6,9,11,6,2,4,10,12,11,5,1,6,11,12,6,3,9,9,9,10,11,2,11,4,10,3,1,11,10,10,9,2,11,11,11,4,1,3,1,2,2,11,1,1,0,0,0,0,0,0,0,0,0,0,0,0,0,0,0,0,0,0,0,0,0,0,0,0,0,0,0,0,0,0,0,0,0,0,0,0,0,0,0,0,0,0,0,0,0,0,0,0,0,0,0,0,0,0,0,0,0,0,0,0,0,0,0],"split_type":[0,0,0,0,0,0,0,0,0,0,0,0,0,0,0,0,0,0,0,0,0,0,0,0,0,0,0,0,0,0,0,0,0,0,0,0,0,0,0,0,0,0,0,0,0,0,0,0,0,0,0,0,0,0,0,0,0,0,0,0,0,0,0,0,0,0,0,0,0,0,0,0,0,0,0,0,0,0,0,0,0,0,0,0,0,0,0,0,0,0,0,0,0,0,0,0,0,0,0,0,0,0,0,0,0,0,0,0,0,0,0,0,0,0,0,0,0,0,0,0,0,0,0,0,0],"sum_hessian":[1.3380481E4,7.9765605E3,5.4039214E3,4.0536155E3,3.9229448E3,1.8175253E3,3.586396E3,3.47158E3,5.8203546E2,3.5514026E3,3.7154236E2,1.4947603E3,3.22765E2,1.8857955E3,1.7006005E3,8.7119696E2,2.600383E3,4.1662683E2,1.6540865E2,2.2154634E3,1.3359391E3,2.613177E2,1.10224655E2,1.0659784E3,4.2878186E2,1.9565848E2,1.27106544E2,1.6841777E3,2.0161775E2,1.6955327E3,5.0678363E0,4.361709E2,4.3502606E2,2.5497964E3,5.0586735E1,6.0448082E1,3.5617877E2,7.093462E1,9.447402E1,4.4452502E2,1.7709384E3,1.2819391E2,1.2077452E3,1.2089404E2,1.4042366E2,1.06580215E2,3.6444404E0,6.330709E2,4.329075E2,2.3986954E2,1.8891234E2,8.100546E1,1.14653015E2,1.4798449E1,1.1230809E2,1.127863E3,5.5631464E2,1.920864E2,9.531349E0,1.5437324E3,1.5180026E2,3.1476634E0,1.9201729E0,1.6437705E0,4.3452713E2,4.072495E2,2.7776562E1,8.626029E2,1.6871936E3,1.2057571E1,3.8529163E1,1.188228E1,4.8565804E1,7.014549E1,2.8603326E2,6.261833E1,8.316294E0,7.578382E1,1.8690203E1,3.6561993E2,7.8905106E1,1.6371757E3,1.3376271E2,4.5731068E1,8.246284E1,8.866368E2,3.2110846E2,9.553394E0,1.1134065E2,7.553156E1,6.48921E1,3.936189E1,6.721833E1,1.45873E0,2.1857107E0,5.145814E1,5.816128E2,9.162195E1,3.4128555E2,1.9555771E2,4.431182E1,1.2999991E1,1.7591234E2,6.313599E1,1.7869473E1,2.8972926E0,1.1175572E2,1.0123717E1,4.6747317E0,3.7480835E1,7.482726E1,1.0974098E3,3.0453257E1,8.399148E0,5.479155E2,1.8621588E2,5.870514E0,5.370557E0,4.160793E0,3.2868385E1,1.510864E3,9.943069E1,5.2369576E1,1.9257177E0,1.2219458E0],"tree_param":{"num_deleted":"0","num_feature":"14","num_nodes":"125","size_leaf_vector":"1"}},{"base_weights":[1.1107506E-3,-3.7699786E-1,5.6972235E-1,-6.396589E-1,-1.6414769E-1,1.9606125E-1,7.620001E-1,-7.1386534E-1,-2.0947896E-1,-2.1840075E-1,3.7578088E-1,9.868198E-2,6.73591E-1,6.9835603E-1,8.3586466E-1,-8.7203145E-1,-6.24351E-1,-5.026091E-1,-1.0929069E-2,-2.8812116E-1,7.874842E-2,1.9181304E-1,6.002129E-1,1.3571551E-1,-2.387164E-1,5.3198946E-1,7.590404E-1,6.715759E-1,8.155332E-1,3.2967505E-1,8.399406E-1,-9.157285E-1,-4.6184775E-1,-8.25247E-1,-5.599913E-1,-1.017977E0,-4.0088162E-1,-1.8326233E-1,3.3380398E-1,-5.304243E-1,-2.1721593E-1,4.770708E-2,6.509778E-1,1.2609287E-1,9.0820026E-1,8.375803E-1,4.7642484E-1,-3.7096676E-1,1.593573E-1,-5.082829E-1,-2.9976624E-3,6.142255E-1,-2.1527864E-1,5.998536E-1,8.7019485E-1,8.041763E-1,6.313195E-1,-1.4512837E-1,8.4290814E-1,-2.6461279E-2,8.2757574E-1,7.301814E-1,8.609808E-1,-3.030565E-1,-2.4042657E-1,-2.117126E-1,-6.272855E-2,-2.66698E-1,-1.7075104E-1,-1.7377295E-1,5.6088578E-2,-1.4151183E-1,-3.18232E-1,-1.4450087E-1,1.4357828E-3,-1.0367151E-1,5.971658E-2,2.3087998E-1,-1.7224381E-3,-2.3883249E-1,-1.2200234E-1,-7.9594955E-2,4.3965032E-4,8.485586E-2,-4.2541777E-3,-1.16009824E-1,2.4634801E-1,4.31634E-2,-4.0350327E-1,3.2881173E-1,-1.7851194E-2,6.66377E-3,2.817277E-1,-2.1607584E-1,1.6332208E-1,-6.709271E-2,-2.8591564E-1,2.2355607E-2,8.641085E-2,-2.0423272E-1,1.0845156E-2,-1.8947022E-1,2.9611295E-2,2.303902E-1,1.1763046E-1,2.2118057E-1,-1.4607698E-1,2.020153E-1,-2.190885E-2,3.1935963E-1,2.3237754E-1,-1.3125253E-1,2.4362166E-1,1.9899522E-1,1.5187848E-1,-2.3220351E-1,1.1409123E-1,2.6017067E-1,1.0063452E-1,-2.2197135E-1,9.001323E-2,3.5302746E-1,1.9718528E-2,1.2395715E-1,2.4286918E-1,2.588946E-1,-6.2199187E-2],"categories":[],"categories_nodes":[],"categories_segments":[],"categories_sizes":[],"default_left":[0,0,0,0,0,0,0,0,0,0,0,0,0,0,0,0,0,0,0,0,0,0,0,0,0,0,0,0,0,0,0,0,0,0,0,0,0,0,0,0,0,0,0,0,0,0,0,0,0,0,0,0,0,0,0,0,0,0,0,0,0,0,0,0,0,0,0,0,0,0,0,0,0,0,0,0,0,0,0,0,0,0,0,0,0,0,0,0,0,0,0,0,0,0,0,0,0,0,0,0,0,0,0,0,0,0,0,0,0,0,0,0,0,0,0,0,0,0,0,0,0,0,0,0,0,0,0],"id":2,"left_children":[1,3,5,7,9,11,13,15,17,19,21,23,25,27,29,31,33,35,37,39,41,43,45,47,49,51,53,55,57,59,61,63,65,67,69,71,73,75,77,79,81,83,85,87,89,91,93,95,97,99,101,103,105,107,109,111,113,115,117,119,121,123,125,-1,-1,-1,-1,-1,-1,-1,-1,-1,-1,-1,-1,-1,-1,-1,-1,-1,-1,-1,-1,-1,-1,-1,-1,-1,-1,-1,-1,-1,-1,-1,-1,-1,-1,-1,-1,-1,-1,-1,-1,-1,-1,-1,-1,-1,-1,-1,-1,-1,-1,-1,-1,-1,-1,-1,-1,-1,-1,-1,-1,-1,-1,-1,-1],"loss_changes":[2.748141E3,4.2910583E2,3.6663306E2,1.0953931E2,1.2434288E2,8.065051E1,1.5260132E1,4.094165E1,2.9499321E1,7.989502E1,1.5892132E1,1.8062168E1,3.151596E0,5.152405E0,2.9310303E0,1.8513184E1,2.377716E1,1.032336E1,1.8077204E1,5.3537537E1,1.299719E1,9.985491E0,4.718689E0,1.5642117E1,9.089984E0,7.1334E0,2.679123E0,7.415039E0,8.886108E0,2.5160594E0,2.9318848E0,9.488403E0,6.245964E0,6.884735E0,2.057074E1,2.73304E-1,5.658903E0,1.2655033E1,1.50127125E1,2.289737E1,2.5430397E1,1.0144239E1,6.968272E0,5.365009E0,3.312602E0,4.811157E0,9.8934765E0,4.78582E0,1.3554625E1,6.292345E0,5.0062885E0,3.2126617E0,3.4731524E0,3.8888054E0,1.1133957E0,3.7083893E0,4.238861E0,3.6272163E0,3.710907E0,2.3579397E0,1.4912577E0,6.071747E0,2.9329224E0,0E0,0E0,0E0,0E0,0E0,0E0,0E0,0E0,0E0,0E0,0E0,0E0,0E0,0E0,0E0,0E0,0E0,0E0,0E0,0E0,0E0,0E0,0E0,0E0,0E0,0E0,0E0,0E0,0E0,0E0,0E0,0E0,0E0,0E0,0E0,0E0,0E0,0E0,0E0,0E0,0E0,0E0,0E0,0E0,0E0,0E0,0E0,0E0,0E0,0E0,0E0,0E0,0E0,0E0,0E0,0E0,0E0,0E0,0E0,0E0,0E0,0E0,0E0,0E0],"parents":[2147483647,0,0,1,1,2,2,3,3,4,4,5,5,6,6,7,7,8,8,9,9,10,10,11,11,12,12,13,13,14,14,15,15,16,16,17,17,18,18,19,19,20,20,21,21,22,22,23,23,24,24,25,25,26,26,27,27,28,28,29,29,30,30,31,31,32,32,33,33,34,34,35,35,36,36,37,37,38,38,39,39,40,40,41,41,42,42,43,43,44,44,45,45,46,46,47,47,48,48,49,49,50,50,51,51,52,52,53,53,54,54,55,55,56,56,57,57,58,58,59,59,60,60,61,61,62,62],"right_children":[2,4,6,8,10,12,14,16,18,20,22,24,26,28,30,32,34,36,38,40,42,44,46,48,50,52,54,56,58,60,62,64,66,68,70,72,74,76,78,80,82,84,86,88,90,92,94,96,98,100,102,104,106,108,110,112,114,116,118,120,122,124,126,-1,-1,-1,-1,-1,-1,-1,-1,-1,-1,-1,-1,-1,-1,-1,-1,-1,-1,-1,-1,-1,-1,-1,-1,-1,-1,-1,-1,-1,-1,-1,-1,-1,-1,-1,-1,-1,-1,-1,-1,-1,-1,-1,-1,-1,-1,-1,-1,-1,-1,-1,-1,-1,-1,-1,-1,-1,-1,-1,-1,-1,-1,-1,-1],"split_conditions":[1.3E2,5.2E1,1.33E2,2E0,3E0,3E0,1.49E2,1.19E2,1.2E2,6.1E1,5.9E1,1E0,2.7379665E1,6.1E1,6.9E1,8.43E1,4.3E1,2.1875E1,3E0,2.3323418E1,3.5204475E1,3.5055634E1,1.59E2,2.1564545E1,2.6291723E1,7.82E1,4.6E1,4.9E1,1.48E2,6E1,6E1,4.6E1,4.7E1,2.8133657E1,1.02E2,4E1,3E0,8.05E1,3E0,1.2E2,3.1184587E1,1E0,1.52E2,1.83E2,2E0,2.3634033E1,1.01E2,6.01E1,9E1,5.9E1,4.4E1,3E0,2E0,1E0,5.5E1,1.882711E1,2E0,8.7E1,6.1E1,9.8E1,2E0,1.58E2,1.52E2,-3.030565E-1,-2.4042657E-1,-2.117126E-1,-6.272855E-2,-2.66698E-1,-1.7075104E-1,-1.7377295E-1,5.6088578E-2,-1.4151183E-1,-3.18232E-1,-1.4450087E-1,1.4357828E-3,-1.0367151E-1,5.971658E-2,2.3087998E-1,-1.7224381E-3,-2.3883249E-1,-1.2200234E-1,-7.9594955E-2,4.3965032E-4,8.485586E-2,-4.2541777E-3,-1.16009824E-1,2.4634801E-1,4.31634E-2,-4.0350327E-1,3.2881173E-1,-1.7851194E-2,6.66377E-3,2.817277E-1,-2.1607584E-1,1.6332208E-1,-6.709271E-2,-2.8591564E-1,2.2355607E-2,8.641085E-2,-2.0423272E-1,1.0845156E-2,-1.8947022E-1,2.9611295E-2,2.303902E-1,1.1763046E-1,2.2118057E-1,-1.4607698E-1,2.020153E-1,-2.190885E-2,3.1935963E-1,2.3237754E-1,-1.3125253E-1,2.4362166E-1,1.9899522E-1,1.5187848E-1,-2.3220351E-1,1.1409123E-1,2.6017067E-1,1.0063452E-1,-2.2197135E-1,9.001323E-2,3.5302746E-1,1.9718528E-2,1.2395715E-1,2.4286918E-1,2.588946E-1,-6.2199187E-2],"split_indices":[3,10,3,5,5,5,3,3,3,10,10,7,11,10,4,2,10,11,5,11,11,11,1,11,11,2,12,10,1,10,12,10,10,11,2,10,5,2,6,3,11,9,1,1,0,11,3,2,4,10,10,6,0,7,10,11,6,4,12,12,0,1,2,0,0,0,0,0,0,0,0,0,0,0,0,0,0,0,0,0,0,0,0,0,0,0,0,0,0,0,0,0,0,0,0,0,0,0,0,0,0,0,0,0,0,0,0,0,0,0,0,0,0,0,0,0,0,0,0,0,0,0,0,0,0,0,0],"split_type":[0,0,0,0,0,0,0,0,0,0,0,0,0,0,0,0,0,0,0,0,0,0,0,0,0,0,0,0,0,0,0,0,0,0,0,0,0,0,0,0,0,0,0,0,0,0,0,0,0,0,0,0,0,0,0,0,0,0,0,0,0,0,0,0,0,0,0,0,0,0,0,0,0,0,0,0,0,0,0,0,0,0,0,0,0,0,0,0,0,0,0,0,0,0,0,0,0,0,0,0,0,0,0,0,0,0,0,0,0,0,0,0,0,0,0,0,0,0,0,0,0,0,0,0,0,0,0],"sum_hessian":[1.2780234E4,7.6761655E3,5.1040684E3,3.4351375E3,4.241028E3,1.7347933E3,3.3692751E3,2.9291902E3,5.0594724E2,3.8543328E3,3.866953E2,1.4419528E3,2.928406E2,1.815466E3,1.5538092E3,1.0554808E3,1.8737094E3,2.0369286E2,3.022544E2,3.1218745E3,7.3245825E2,2.1352368E2,1.7317163E2,1.2998738E3,1.4207903E2,1.129284E2,1.7991222E2,1.483217E3,3.3224887E2,1.3065832E1,1.5407434E3,9.527513E2,1.0272957E2,4.5175473E2,1.4219546E3,3.2093754E1,1.715991E2,2.0182817E2,1.00426216E2,7.052741E2,2.4166003E3,6.957972E2,3.6661076E1,1.9665857E2,1.6865116E1,5.7379116E1,1.1579251E2,5.7293293E1,1.2425804E3,6.574133E1,7.633769E1,1.01893196E2,1.1035198E1,7.6603355E1,1.0330886E2,3.4100488E2,1.1422122E3,9.086247E0,3.2316263E2,8.169349E0,4.896483E0,2.535847E2,1.2871587E3,5.17372E2,4.3537927E2,5.1372364E1,5.13572E1,3.5973334E2,9.20214E1,1.3864451E3,3.550949E1,3.2050576E0,2.8888699E1,1.4294461E2,2.8654495E1,1.4174693E2,6.0081234E1,4.3425014E1,5.70012E1,2.223875E2,4.828866E2,1.9807144E3,4.35886E2,1.4422719E2,5.5157E2,4.9861336E0,3.167494E1,1.9520085E2,1.4577123E0,1.4012555E1,2.8525612E0,6.48765E0,5.0891468E1,5.708681E0,1.10083824E2,4.6825962E1,1.0467331E1,7.498077E2,4.9277277E2,4.9733757E1,1.6007576E1,9.905668E0,6.643202E1,5.8763206E1,4.312999E1,2.0683262E0,8.966872E0,6.905633E1,7.547026E0,3.0722593E1,7.2586266E1,1.8109453E0,3.3919394E2,9.0607587E2,2.3613635E2,3.920617E0,5.1656303E0,3.0770258E2,1.5460051E1,2.1673543E0,6.001994E0,2.984134E0,1.9123491E0,5.2028618E1,2.0155609E2,1.2849438E3,2.2147918E0],"tree_param":{"num_deleted":"0","num_feature":"14","num_nodes":"127","size_leaf_vector":"1"}},{"base_weights":[1.3281582E-3,-2.7896607E-1,4.3182573E-1,-4.3541795E-1,-5.07423E-2,1.4644265E-1,5.972055E-1,-4.942602E-1,-1.2092232E-1,-9.322264E-2,3.3108795E-1,3.4558464E-2,3.9272463E-1,5.414874E-1,6.6165406E-1,-7.883294E-1,-4.4228986E-1,-6.806586E-1,-7.236839E-2,-3.0049616E-1,-2.9521393E-2,1.01694904E-1,4.8385984E-1,-9.061769E-2,1.3052918E-1,2.5278497E-1,5.2352875E-1,5.008649E-1,6.0719776E-1,6.7726475E-1,5.044946E-1,-1.0142815E0,-7.271206E-1,-6.4960736E-1,-3.7911803E-1,-7.622742E-1,7.893858E-1,-1.8000592E-1,1.6994654E-1,-6.5962857E-1,-2.4871618E-1,1.6355762E-1,-7.9706736E-2,-1.276768E-1,3.093069E-1,7.010922E-1,3.933795E-1,-7.262804E-1,-5.9548542E-2,1.5635258E-1,-3.659545E-1,3.0006155E-1,-2.8898647E-1,6.001754E-1,4.0769586E-1,5.132902E-1,7.059833E-2,6.809308E-1,4.822906E-1,2.9949865E-1,6.8582433E-1,6.0603845E-1,3.1053412E-1,-3.609847E-1,-2.6074147E-1,-2.771304E-1,-2.0009224E-1,-1.9664413E-1,3.0573472E-1,-4.9201675E-2,-1.2953407E-1,-1.2922502E-1,-3.3596376E-1,-4.933923E-2,4.1722023E-1,-1.01639464E-1,2.1663501E-3,1.3352562E-1,-1.0126878E-2,-2.7976182E-1,-1.428329E-1,-1.1271495E-1,-3.12697E-2,-1.6336598E-2,8.801242E-2,6.667201E-4,-6.901842E-2,-1.871581E-1,1.0003984E-2,7.13131E-2,2.2628789E-1,1.2399962E-1,2.4719612E-1,-2.366788E-1,1.358875E-1,1.2075067E-1,-2.660189E-1,-1.2117578E-1,-4.2172326E-3,1.0529172E-1,3.350863E-2,-1.5573668E-1,1.9449872E-1,2.4515685E-2,1.1761434E-1,-3.1014845E-1,3.616764E-2,2.1627104E-1,1.5548547E-1,2.119564E-1,9.2575364E-2,2.507946E-2,1.5743428E-1,1.0682261E-1,-1.3361026E-1,1.1759267E-1,2.1417637E-1,-1.1147333E-1,1.4978893E-1,3.61396E-2,3.0120856E-1,1.8039364E-1,2.1606149E-1,1.928997E-1,7.0857476E-3,1.5454341E-1,-2.3563009E-2],"categories":[],"categories_nodes":[],"categories_segments":[],"categories_sizes":[],"default_left":[0,0,0,0,0,0,0,0,0,0,0,0,0,0,0,0,0,0,0,0,0,0,0,0,0,0,0,0,0,0,0,0,0,0,0,0,0,0,0,0,0,0,0,0,0,0,0,0,0,0,0,0,0,0,0,0,0,0,0,0,0,0,0,0,0,0,0,0,0,0,0,0,0,0,0,0,0,0,0,0,0,0,0,0,0,0,0,0,0,0,0,0,0,0,0,0,0,0,0,0,0,0,0,0,0,0,0,0,0,0,0,0,0,0,0,0,0,0,0,0,0,0,0,0,0,0,0],"id":3,"left_children":[1,3,5,7,9,11,13,15,17,19,21,23,25,27,29,31,33,35,37,39,41,43,45,47,49,51,53,55,57,59,61,63,65,67,69,71,73,75,77,79,81,83,85,87,89,91,93,95,97,99,101,103,105,107,109,111,113,115,117,119,121,123,125,-1,-1,-1,-1,-1,-1,-1,-1,-1,-1,-1,-1,-1,-1,-1,-1,-1,-1,-1,-1,-1,-1,-1,-1,-1,-1,-1,-1,-1,-1,-1,-1,-1,-1,-1,-1,-1,-1,-1,-1,-1,-1,-1,-1,-1,-1,-1,-1,-1,-1,-1,-1,-1,-1,-1,-1,-1,-1,-1,-1,-1,-1,-1,-1],"loss_changes":[1.4687361E3,2.6320398E2,2.2645056E2,8.087659E1,4.86823E1,4.8548004E1,1.05529785E1,5.595282E1,1.8720928E1,3.5639618E1,1.0482117E1,1.4582938E1,9.943054E0,4.060608E0,3.1038208E0,6.8968506E0,4.078485E1,7.2016697E0,1.6635685E1,1.1636719E1,2.0035128E1,5.820416E0,3.264389E0,1.036393E1,8.8646755E0,6.9474564E0,2.272873E0,5.3964386E0,5.3814087E0,3.9158936E0,2.388237E0,2.112381E0,4.562866E0,7.825226E0,2.71586E1,5.756506E0,2.1701717E0,1.3122777E1,1.1018766E1,3.5307465E0,1.0167377E1,1.2089767E1,2.021149E1,4.6854744E0,1.8601098E0,1.4871368E0,9.474571E0,4.788102E0,7.881937E0,5.642194E0,5.659572E0,4.9258823E0,6.8380094E0,1.2925377E0,3.2186127E0,4.8318787E0,4.5305233E0,3.4132996E0,3.576912E0,3.6649988E0,3.1859741E0,1.8105011E0,3.7822704E0,0E0,0E0,0E0,0E0,0E0,0E0,0E0,0E0,0E0,0E0,0E0,0E0,0E0,0E0,0E0,0E0,0E0,0E0,0E0,0E0,0E0,0E0,0E0,0E0,0E0,0E0,0E0,0E0,0E0,0E0,0E0,0E0,0E0,0E0,0E0,0E0,0E0,0E0,0E0,0E0,0E0,0E0,0E0,0E0,0E0,0E0,0E0,0E0,0E0,0E0,0E0,0E0,0E0,0E0,0E0,0E0,0E0,0E0,0E0,0E0,0E0,0E0,0E0,0E0],"parents":[2147483647,0,0,1,1,2,2,3,3,4,4,5,5,6,6,7,7,8,8,9,9,10,10,11,11,12,12,13,13,14,14,15,15,16,16,17,17,18,18,19,19,20,20,21,21,22,22,23,23,24,24,25,25,26,26,27,27,28,28,29,29,30,30,31,31,32,32,33,33,34,34,35,35,36,36,37,37,38,38,39,39,40,40,41,41,42,42,43,43,44,44,45,45,46,46,47,47,48,48,49,49,50,50,51,51,52,52,53,53,54,54,55,55,56,56,57,57,58,58,59,59,60,60,61,61,62,62],"right_children":[2,4,6,8,10,12,14,16,18,20,22,24,26,28,30,32,34,36,38,40,42,44,46,48,50,52,54,56,58,60,62,64,66,68,70,72,74,76,78,80,82,84,86,88,90,92,94,96,98,100,102,104,106,108,110,112,114,116,118,120,122,124,126,-1,-1,-1,-1,-1,-1,-1,-1,-1,-1,-1,-1,-1,-1,-1,-1,-1,-1,-1,-1,-1,-1,-1,-1,-1,-1,-1,-1,-1,-1,-1,-1,-1,-1,-1,-1,-1,-1,-1,-1,-1,-1,-1,-1,-1,-1,-1,-1,-1,-1,-1,-1,-1,-1,-1,-1,-1,-1,-1,-1,-1,-1,-1,-1],"split_conditions":[1.3E2,5.5E1,1.39E2,2E0,3E0,2E0,1.49E2,5.98E1,4.1E1,1.19E2,2.5636917E1,5.4E1,3E0,2E0,3E0,1.1E2,4.4E1,8.1E1,3E0,5.52E1,1E0,5.9E1,1.58E2,2.1484375E1,1E0,1E0,3E0,1.44E2,2E0,2.0715694E1,1.67E2,4.5E1,4.3E1,1.29E2,1E0,4E1,1E0,2.6854406E1,3E0,1.1E2,5.9E1,5.8E1,2E0,1E0,6.4E1,2.888889E1,1.01E2,5E1,4.2E1,1.57E2,3.4017643E1,1.59E2,2.6446281E1,5.5E1,1.58E2,2.0829996E1,5.6E1,1.54E2,7.1E1,1.74E2,1.6E2,6.4E1,3.082483E1,-3.609847E-1,-2.6074147E-1,-2.771304E-1,-2.0009224E-1,-1.9664413E-1,3.0573472E-1,-4.9201675E-2,-1.2953407E-1,-1.2922502E-1,-3.3596376E-1,-4.933923E-2,4.1722023E-1,-1.01639464E-1,2.1663501E-3,1.3352562E-1,-1.0126878E-2,-2.7976182E-1,-1.428329E-1,-1.1271495E-1,-3.12697E-2,-1.6336598E-2,8.801242E-2,6.667201E-4,-6.901842E-2,-1.871581E-1,1.0003984E-2,7.13131E-2,2.2628789E-1,1.2399962E-1,2.4719612E-1,-2.366788E-1,1.358875E-1,1.2075067E-1,-2.660189E-1,-1.2117578E-1,-4.2172326E-3,1.0529172E-1,3.350863E-2,-1.5573668E-1,1.9449872E-1,2.4515685E-2,1.1761434E-1,-3.1014845E-1,3.616764E-2,2.1627104E-1,1.5548547E-1,2.119564E-1,9.2575364E-2,2.507946E-2,1.5743428E-1,1.0682261E-1,-1.3361026E-1,1.1759267E-1,2.1417637E-1,-1.1147333E-1,1.4978893E-1,3.61396E-2,3.0120856E-1,1.8039364E-1,2.1606149E-1,1.928997E-1,7.0857476E-3,1.5454341E-1,-2.3563009E-2],"split_indices":[3,10,3,5,5,5,3,2,10,3,11,10,5,5,6,3,10,4,5,2,9,10,1,11,8,8,6,3,6,11,1,10,10,2,9,10,9,11,6,3,10,10,0,9,10,11,3,2,10,1,11,1,11,10,1,11,10,1,4,1,1,10,11,0,0,0,0,0,0,0,0,0,0,0,0,0,0,0,0,0,0,0,0,0,0,0,0,0,0,0,0,0,0,0,0,0,0,0,0,0,0,0,0,0,0,0,0,0,0,0,0,0,0,0,0,0,0,0,0,0,0,0,0,0,0,0,0],"split_type":[0,0,0,0,0,0,0,0,0,0,0,0,0,0,0,0,0,0,0,0,0,0,0,0,0,0,0,0,0,0,0,0,0,0,0,0,0,0,0,0,0,0,0,0,0,0,0,0,0,0,0,0,0,0,0,0,0,0,0,0,0,0,0,0,0,0,0,0,0,0,0,0,0,0,0,0,0,0,0,0,0,0,0,0,0,0,0,0,0,0,0,0,0,0,0,0,0,0,0,0,0,0,0,0,0,0,0,0,0,0,0,0,0,0,0,0,0,0,0,0,0,0,0,0,0,0,0],"sum_hessian":[1.2169916E4,7.3710347E3,4.7988813E3,4.372614E3,2.9984207E3,1.7613469E3,3.0375347E3,3.6829595E3,6.896545E2,2.6989106E3,2.9951013E2,1.2119203E3,5.4942664E2,1.6341523E3,1.4033823E3,5.5100116E2,3.1319583E3,5.40093E1,6.356452E2,6.3359094E2,2.0653196E3,1.2039618E2,1.7911395E2,5.2595917E2,6.859611E2,2.6686063E2,2.82566E2,1.01518286E3,6.189694E2,1.273569E3,1.2981331E2,1.1412792E2,4.3687326E2,7.292898E2,2.4026685E3,5.1624607E1,2.3846931E0,4.4031302E2,1.9533215E2,7.8360954E1,5.5523E2,4.256086E2,1.639711E3,5.738344E1,6.3012745E1,5.0682606E1,1.2843135E2,2.3466541E1,5.024926E2,6.5269775E2,3.3263412E1,2.4585292E2,2.100771E1,1.6753001E2,1.15035995E2,9.8650165E2,2.8681238E1,3.864156E2,2.3255383E2,2.9015219E1,1.2445538E3,8.3811195E1,4.600211E1,4.640741E1,6.772051E1,9.896171E1,3.3791156E2,7.2733716E2,1.9526566E0,4.7333218E2,1.9293362E3,2.793318E1,2.3691427E1,1.2030076E0,1.1816856E0,2.3781027E2,2.0250276E2,8.259166E1,1.127405E2,2.9865925E1,4.8495033E1,2.9464163E2,2.6058838E2,1.5906229E2,2.6654633E2,1.062004E3,5.77707E2,1.3355367E1,4.402807E1,5.5600956E1,7.4117866E0,1.6473343E1,3.420926E1,5.5741262E0,1.2285722E2,2.73274E0,2.07338E1,5.7714073E1,4.4477853E2,1.20535255E2,5.321625E2,2.9323444E1,3.9399676E0,7.3434326E1,1.724186E2,6.912175E0,1.4095534E1,6.455533E1,1.02974686E2,2.7124815E1,8.791118E1,2.5909184E1,9.6059247E2,1.8664375E1,1.0016864E1,4.0916714E1,3.4549887E2,4.134011E0,2.2841982E2,2.406968E1,4.945539E0,3.6523788E2,8.793159E2,7.871209E1,5.09911E0,2.9935448E1,1.6066664E1],"tree_param":{"num_deleted":"0","num_feature":"14","num_nodes":"127","size_leaf_vector":"1"}},{"base_weights":[1.3911371E-3,-1.4702973E-1,4.597894E-1,-3.4140724E-1,-4.025801E-2,4.0894574E-1,5.223562E-1,-4.0380916E-1,3.6094364E-2,-9.650829E-2,1.5754955E-1,3.830437E-1,5.2630496E-1,2.3372056E-1,5.3081745E-1,-4.6795434E-1,-1.9523355E-1,-4.609295E-2,2.8098863E-1,-1.6380504E-1,3.5677724E-2,-8.8345915E-2,2.1539018E-1,5.056114E-1,3.4686416E-1,-2.4393226E-1,5.5177325E-1,3.502011E-1,-9.499407E-1,5.3283775E-1,-1.8165608E-1,-6.021663E-1,-3.846649E-1,-5.701121E-1,-1.3986655E-1,-3.011228E-1,2.6162624E-2,4.3802372E-1,-5.0718304E-2,-6.069758E-1,-1.4103222E-1,6.0808245E-2,-3.2718495E-1,-6.5741843E-1,2.2444967E-3,1.465381E-1,4.2970774E-1,6.0773855E-1,4.0533715E-1,8.905547E-2,3.6133894E-1,-6.941457E-1,1.8360782E-1,6.270184E-1,4.155454E-1,4.9343142E-1,-3.1693164E-1,-4.592198E-1,6.569448E-2,4.199374E-1,5.557038E-1,-2.4327856E-1,-1.642932E-1,-1.2744483E-1,-3.2929495E-2,-1.8702874E-1,1.7031454E-1,-5.215825E-2,1.3974306E-1,-6.988222E-2,-3.365109E-1,5.5962376E-2,-6.137384E-2,7.026962E-2,2.2194517E-1,-1.09150685E-1,1.354296E-1,-2.59881E-1,-1.1964043E-1,-5.405406E-2,2.2848206E-2,4.2473697E-4,4.379369E-2,-2.4907075E-1,-4.4746893E-3,-2.5228798E-1,9.631083E-3,-5.451249E-2,4.7804687E-2,-2.2590106E-2,5.756551E-2,1.4869502E-1,2.4919346E-2,1.1699759E-1,2.205975E-1,-1.7654303E-1,1.4975068E-1,9.25783E-2,-9.702523E-2,1.525323E-1,1.02214396E-1,9.8168455E-2,-3.6751267E-1,-1.8364537E-1,1.5182626E-1,-1.2725407E-1,1.9658735E-1,1.000329E-1,2.4880235E-1,3.3273372E-1,9.820012E-2,2.5932115E-2,-3.4047297E-1,5.4146003E-2,1.5133688E-1,1.0424766E-1,1.7317387E-1],"categories":[],"categories_nodes":[],"categories_segments":[],"categories_sizes":[],"default_left":[0,0,0,0,0,0,0,0,0,0,0,0,0,0,0,0,0,0,0,0,0,0,0,0,0,0,0,0,0,0,0,0,0,0,0,0,0,0,0,0,0,0,0,0,0,0,0,0,0,0,0,0,0,0,0,0,0,0,0,0,0,0,0,0,0,0,0,0,0,0,0,0,0,0,0,0,0,0,0,0,0,0,0,0,0,0,0,0,0,0,0,0,0,0,0,0,0,0,0,0,0,0,0,0,0,0,0,0,0,0,0,0,0,0,0,0,0],"id":4,"left_children":[1,3,5,7,9,11,13,15,17,19,21,23,25,27,29,31,33,35,37,39,41,43,45,47,49,51,53,55,57,59,-1,61,63,65,67,69,71,73,75,77,79,81,83,85,87,89,91,93,95,97,99,101,103,105,107,109,111,-1,-1,113,115,-1,-1,-1,-1,-1,-1,-1,-1,-1,-1,-1,-1,-1,-1,-1,-1,-1,-1,-1,-1,-1,-1,-1,-1,-1,-1,-1,-1,-1,-1,-1,-1,-1,-1,-1,-1,-1,-1,-1,-1,-1,-1,-1,-1,-1,-1,-1,-1,-1,-1,-1,-1,-1,-1,-1,-1],"loss_changes":[7.9204736E2,1.8250166E2,8.84436E0,7.346088E1,6.318593E1,4.5875854E0,2.9847107E0,3.570633E1,8.933211E0,3.9333595E1,1.7902636E1,5.5641174E0,5.6699524E0,5.5772867E0,3.1599731E0,2.263498E1,1.30180435E1,6.1384635E0,5.8304396E0,2.948185E1,1.3627794E1,1.2382096E1,1.4962383E1,2.7520828E0,3.7088852E0,1.9993813E0,2.5424652E0,3.5353513E0,2.8317401E0,2.9528809E0,0E0,8.451874E0,1.39162445E1,5.260647E0,1.1429073E1,3.8525548E0,9.665712E0,4.4874907E0,5.938293E0,7.367302E0,2.3717731E1,7.0637717E0,1.5195521E1,4.2012596E0,6.0450826E0,7.78228E0,5.6063576E0,3.6874886E0,1.4350435E1,5.04593E0,2.7055588E0,3.0828762E0,1.792782E0,5.4548874E0,3.129757E0,2.654014E0,2.361251E0,0E0,0E0,4.198704E0,4.38916E0,0E0,0E0,0E0,0E0,0E0,0E0,0E0,0E0,0E0,0E0,0E0,0E0,0E0,0E0,0E0,0E0,0E0,0E0,0E0,0E0,0E0,0E0,0E0,0E0,0E0,0E0,0E0,0E0,0E0,0E0,0E0,0E0,0E0,0E0,0E0,0E0,0E0,0E0,0E0,0E0,0E0,0E0,0E0,0E0,0E0,0E0,0E0,0E0,0E0,0E0,0E0,0E0,0E0,0E0,0E0,0E0],"parents":[2147483647,0,0,1,1,2,2,3,3,4,4,5,5,6,6,7,7,8,8,9,9,10,10,11,11,12,12,13,13,14,14,15,15,16,16,17,17,18,18,19,19,20,20,21,21,22,22,23,23,24,24,25,25,26,26,27,27,28,28,29,29,31,31,32,32,33,33,34,34,35,35,36,36,37,37,38,38,39,39,40,40,41,41,42,42,43,43,44,44,45,45,46,46,47,47,48,48,49,49,50,50,51,51,52,52,53,53,54,54,55,55,56,56,59,59,60,60],"right_children":[2,4,6,8,10,12,14,16,18,20,22,24,26,28,30,32,34,36,38,40,42,44,46,48,50,52,54,56,58,60,-1,62,64,66,68,70,72,74,76,78,80,82,84,86,88,90,92,94,96,98,100,102,104,106,108,110,112,-1,-1,114,116,-1,-1,-1,-1,-1,-1,-1,-1,-1,-1,-1,-1,-1,-1,-1,-1,-1,-1,-1,-1,-1,-1,-1,-1,-1,-1,-1,-1,-1,-1,-1,-1,-1,-1,-1,-1,-1,-1,-1,-1,-1,-1,-1,-1,-1,-1,-1,-1,-1,-1,-1,-1,-1,-1,-1,-1],"split_conditions":[1.33E2,5.1E1,1.49E2,1.29E2,2E0,6.1E1,7.9E1,7.85E1,2E0,5.9E1,1.11E2,4.9E1,1.48E2,7.3E1,1.13E2,1.18E2,4.1E1,4.3E1,4.9E1,1.02E2,1E0,2.2038567E1,6.1E1,2.770083E1,2.210029E1,8.7E1,2E0,1.73E2,1.65E2,6E1,-1.8165608E-1,2.1773842E1,2E0,8.7E1,3E0,1.79E2,4.9E1,4.6E1,2E0,1.61E2,3.1184587E1,6.2E1,2.4489796E1,6.1E1,3.9E1,2.3634033E1,1.71E2,2.4034407E1,2.822898E1,1.69E2,2.4034407E1,6.41E1,2.3999458E1,5.15E1,1.77E2,2.3140495E1,1.61E2,-4.592198E-1,6.569448E-2,1.59E2,2.3255018E1,-2.4327856E-1,-1.642932E-1,-1.2744483E-1,-3.2929495E-2,-1.8702874E-1,1.7031454E-1,-5.215825E-2,1.3974306E-1,-6.988222E-2,-3.365109E-1,5.5962376E-2,-6.137384E-2,7.026962E-2,2.2194517E-1,-1.09150685E-1,1.354296E-1,-2.59881E-1,-1.1964043E-1,-5.405406E-2,2.2848206E-2,4.2473697E-4,4.379369E-2,-2.4907075E-1,-4.4746893E-3,-2.5228798E-1,9.631083E-3,-5.451249E-2,4.7804687E-2,-2.2590106E-2,5.756551E-2,1.4869502E-1,2.4919346E-2,1.1699759E-1,2.205975E-1,-1.7654303E-1,1.4975068E-1,9.25783E-2,-9.702523E-2,1.525323E-1,1.02214396E-1,9.8168455E-2,-3.6751267E-1,-1.8364537E-1,1.5182626E-1,-1.2725407E-1,1.9658735E-1,1.000329E-1,2.4880235E-1,3.3273372E-1,9.820012E-2,2.5932115E-2,-3.4047297E-1,5.4146003E-2,1.5133688E-1,1.0424766E-1,1.7317387E-1],"split_indices":[3,10,3,3,5,10,4,2,5,10,3,10,1,4,12,3,10,10,10,3,7,11,10,11,11,4,0,1,1,12,0,11,5,4,5,1,10,10,0,1,11,10,11,10,12,11,1,11,11,1,11,2,11,2,1,11,3,0,0,1,11,0,0,0,0,0,0,0,0,0,0,0,0,0,0,0,0,0,0,0,0,0,0,0,0,0,0,0,0,0,0,0,0,0,0,0,0,0,0,0,0,0,0,0,0,0,0,0,0,0,0,0,0,0,0,0,0],"split_type":[0,0,0,0,0,0,0,0,0,0,0,0,0,0,0,0,0,0,0,0,0,0,0,0,0,0,0,0,0,0,0,0,0,0,0,0,0,0,0,0,0,0,0,0,0,0,0,0,0,0,0,0,0,0,0,0,0,0,0,0,0,0,0,0,0,0,0,0,0,0,0,0,0,0,0,0,0,0,0,0,0,0,0,0,0,0,0,0,0,0,0,0,0,0,0,0,0,0,0,0,0,0,0,0,0,0,0,0,0,0,0,0,0,0,0,0,0],"sum_hessian":[1.1639622E4,8.79322E3,2.8464023E3,3.1168352E3,5.6763843E3,1.5744738E3,1.2719285E3,2.6746409E3,4.4219424E2,4.4199897E3,1.2563945E3,1.2932975E3,2.8117633E2,3.703933E1,1.2348892E3,2.044602E3,6.3003894E2,3.3168985E2,1.1050442E2,2.9287202E3,1.4912695E3,2.3915549E2,1.0172391E3,2.9179398E2,1.0015035E3,8.72511E0,2.724512E2,3.4362007E1,2.6773245E0,1.2332277E3,1.6615012E0,7.805691E2,1.264033E3,7.988142E1,5.5015753E2,7.2528656E1,2.591612E2,7.4781296E1,3.5723114E1,1.4188628E2,2.7868337E3,1.3954578E3,9.581179E1,3.1983557E1,2.0717194E2,7.7117395E2,2.4606512E2,1.4205417E2,1.4973979E2,5.362083E1,9.478826E2,3.946129E0,4.7789807E0,1.731883E2,9.9262924E1,2.850293E1,5.8590765E0,1.5818434E0,1.0954812E0,2.1096422E2,1.0222635E3,1.587714E2,6.2179767E2,1.1024644E3,1.6156853E2,7.6737686E1,3.143734E0,5.2159534E2,2.8562181E1,6.814994E1,4.378713E0,1.5300543E2,1.06155754E2,4.5698605E1,2.9082695E1,2.2172705E1,1.355041E1,6.1777405E1,8.0108864E1,2.3613774E3,4.254564E2,8.2274567E2,5.7271204E2,3.6060825E1,5.975097E1,2.5086296E1,6.89726E0,9.535944E1,1.11812485E2,1.307722E2,6.404018E2,2.0637613E2,3.9689E1,5.3981976E1,8.80722E1,1.2463348E1,1.3727644E2,3.5159184E1,1.8461645E1,1.13647064E2,8.342356E2,1.4808339E0,2.465295E0,1.1191287E0,3.6598523E0,4.1692643E0,1.6901903E2,8.433549E1,1.4927432E1,4.849526E0,2.3653402E1,4.5229735E0,1.3361028E0,5.5855415E1,1.551088E2,9.7456665E1,9.248068E2],"tree_param":{"num_deleted":"0","num_feature":"14","num_nodes":"117","size_leaf_vector":"1"}},{"base_weights":[1.2349243E-3,-1.3467179E-1,2.9717174E-1,-2.9090366E-1,-5.07883E-2,1.3462457E-1,3.5554808E-1,-5.8826274E-1,-2.450222E-1,-7.846037E-2,2.0580344E-1,2.992384E-1,9.157996E-2,3.728578E-1,2.085787E-1,-7.0928514E-1,-4.7399944E-1,-4.0497872E-1,-1.7339283E-1,-3.4775257E-1,-5.418067E-2,9.281347E-2,3.8620993E-1,-4.3757913E-1,3.2162422E-1,9.599075E-1,8.134945E-2,3.36069E-1,4.45549E-1,6.7261505E-1,1.8343385E-1,-7.254924E-1,-1.0173831E-1,-7.935734E-1,-4.0169662E-1,-5.81468E-1,-3.2258734E-1,-2.2304597E-1,8.011563E-2,-4.0565848E-1,4.4566717E-2,8.8827066E-2,-9.130985E-2,2.3048995E-1,-1.3206202E-2,7.461641E-1,3.003508E-1,-3.039302E-1,5.3215846E-3,3.4469616E-1,-3.3263332E-1,4.926461E-1,4.8374107E-1,4.495714E-2,2.9476854E-1,2.9116505E-1,3.9229572E-1,4.50545E-1,-4.7747552E-1,-6.822546E-2,8.2064337E-1,-1.3064347E-1,2.219042E-1,-2.0839438E-1,-3.2330638E-1,1.2182806E-1,-1.9240664E-1,-1.5333123E-2,-2.6911584E-1,-1.2497589E-1,2.7215347E-1,-2.2060889E-1,-1.4381906E-1,-1.0197194E-1,4.8271473E-2,-5.5036735E-2,-1.7644343E-1,-1.1869864E-1,4.3642554E-2,-4.086953E-2,-1.4259481E-1,-8.8140674E-2,1.0731629E-1,-2.717231E-2,4.2836383E-2,-4.3415546E-2,3.936913E-3,-1.5226373E-1,9.2801094E-2,3.5209078E-1,-1.1232183E-2,1.9024428E-2,3.161081E-1,-1.21265545E-1,1.0208198E-1,-2.1005239E-1,1.0728638E-1,7.3705114E-2,-2.0080419E-1,-2.4420938E-1,2.8412667E-1,1.7109789E-2,-2.4891925E-1,1.4138672E-1,3.2068465E-2,8.8394314E-2,-2.7738285E-1,-2.544428E-1,1.1911317E-1,1.4595959E-1,9.584653E-2,-2.5260624E-1,8.6059466E-2,6.532177E-2,2.740224E-1,6.662334E-2,-1.3483939E-1,-1.5559123E-2,8.798857E-2],"categories":[],"categories_nodes":[],"categories_segments":[],"categories_sizes":[],"default_left":[0,0,0,0,0,0,0,0,0,0,0,0,0,0,0,0,0,0,0,0,0,0,0,0,0,0,0,0,0,0,0,0,0,0,0,0,0,0,0,0,0,0,0,0,0,0,0,0,0,0,0,0,0,0,0,0,0,0,0,0,0,0,0,0,0,0,0,0,0,0,0,0,0,0,0,0,0,0,0,0,0,0,0,0,0,0,0,0,0,0,0,0,0,0,0,0,0,0,0,0,0,0,0,0,0,0,0,0,0,0,0,0,0,0,0,0,0,0,0],"id":5,"left_children":[1,3,5,7,9,11,13,15,17,19,21,23,25,27,29,31,33,35,37,39,41,43,45,47,49,51,53,55,57,59,61,63,65,67,69,71,73,75,77,79,81,83,85,87,89,91,93,-1,-1,95,97,-1,99,101,103,105,107,109,111,-1,113,115,117,-1,-1,-1,-1,-1,-1,-1,-1,-1,-1,-1,-1,-1,-1,-1,-1,-1,-1,-1,-1,-1,-1,-1,-1,-1,-1,-1,-1,-1,-1,-1,-1,-1,-1,-1,-1,-1,-1,-1,-1,-1,-1,-1,-1,-1,-1,-1,-1,-1,-1,-1,-1,-1,-1,-1,-1],"loss_changes":[4.5155728E2,1.0081572E2,3.3479828E1,3.652382E1,3.5569862E1,6.5995693E0,6.534363E0,4.6219025E0,2.6626846E1,2.9538025E1,9.9058075E0,3.3311176E0,6.520802E0,6.065094E0,3.0985556E0,1.6208801E0,4.0121574E0,1.028125E1,2.029802E1,8.507313E0,2.203228E1,4.3995953E0,5.5708904E0,1.6234987E0,2.9570007E0,1.9856105E0,5.697483E0,3.791916E0,3.8021698E0,2.0276995E0,3.2105083E0,1.070694E0,1.8046545E0,2.532383E0,3.396307E0,3.2271118E0,4.183407E0,1.9369614E1,8.286174E0,6.048279E0,5.2932663E0,8.2942505E0,1.8371307E1,7.785624E0,4.9655786E0,7.374031E0,4.443101E0,0E0,0E0,2.7133675E0,1.5125237E0,0E0,4.653969E0,6.6945877E0,3.4959354E0,3.9309006E0,4.3657913E0,3.4958801E0,1.5436448E0,0E0,4.7694683E-1,3.4017591E0,4.607214E0,0E0,0E0,0E0,0E0,0E0,0E0,0E0,0E0,0E0,0E0,0E0,0E0,0E0,0E0,0E0,0E0,0E0,0E0,0E0,0E0,0E0,0E0,0E0,0E0,0E0,0E0,0E0,0E0,0E0,0E0,0E0,0E0,0E0,0E0,0E0,0E0,0E0,0E0,0E0,0E0,0E0,0E0,0E0,0E0,0E0,0E0,0E0,0E0,0E0,0E0,0E0,0E0,0E0,0E0,0E0,0E0],"parents":[2147483647,0,0,1,1,2,2,3,3,4,4,5,5,6,6,7,7,8,8,9,9,10,10,11,11,12,12,13,13,14,14,15,15,16,16,17,17,18,18,19,19,20,20,21,21,22,22,23,23,24,24,25,25,26,26,27,27,28,28,29,29,30,30,31,31,32,32,33,33,34,34,35,35,36,36,37,37,38,38,39,39,40,40,41,41,42,42,43,43,44,44,45,45,46,46,49,49,50,50,52,52,53,53,54,54,55,55,56,56,57,57,58,58,60,60,61,61,62,62],"right_children":[2,4,6,8,10,12,14,16,18,20,22,24,26,28,30,32,34,36,38,40,42,44,46,48,50,52,54,56,58,60,62,64,66,68,70,72,74,76,78,80,82,84,86,88,90,92,94,-1,-1,96,98,-1,100,102,104,106,108,110,112,-1,114,116,118,-1,-1,-1,-1,-1,-1,-1,-1,-1,-1,-1,-1,-1,-1,-1,-1,-1,-1,-1,-1,-1,-1,-1,-1,-1,-1,-1,-1,-1,-1,-1,-1,-1,-1,-1,-1,-1,-1,-1,-1,-1,-1,-1,-1,-1,-1,-1,-1,-1,-1,-1,-1,-1,-1,-1,-1],"split_conditions":[1E0,5.1E1,1.38E2,4.1E1,3E0,1E0,3E0,2.4740938E1,1.18E2,2.1773842E1,2.8720083E1,5.435E1,1.2E1,2E0,5.85E1,5.1E1,3.9E1,6.27E1,2E0,6.2E1,1E0,3E0,3.0062101E1,1.21E2,1.08E2,4.8E1,3E0,1.49E2,1.35E2,1.5E2,6.64E1,7.21E1,2E0,6.41E1,1.31E2,1.08E2,3E0,1E0,7.8E1,1E0,2.0549887E1,7.9E1,5.9E1,3.8E1,1.9227688E1,5.7E1,3.0297785E1,-3.039302E-1,5.3215846E-3,1.48E2,4.8E1,4.926461E-1,5.2E1,4.3E1,2.8672626E1,1.48E2,1.41E2,2E0,3E0,-6.822546E-2,1E0,6.22E1,2E0,-2.0839438E-1,-3.2330638E-1,1.2182806E-1,-1.9240664E-1,-1.5333123E-2,-2.6911584E-1,-1.2497589E-1,2.7215347E-1,-2.2060889E-1,-1.4381906E-1,-1.0197194E-1,4.8271473E-2,-5.5036735E-2,-1.7644343E-1,-1.1869864E-1,4.3642554E-2,-4.086953E-2,-1.4259481E-1,-8.8140674E-2,1.0731629E-1,-2.717231E-2,4.2836383E-2,-4.3415546E-2,3.936913E-3,-1.5226373E-1,9.2801094E-2,3.5209078E-1,-1.1232183E-2,1.9024428E-2,3.161081E-1,-1.21265545E-1,1.0208198E-1,-2.1005239E-1,1.0728638E-1,7.3705114E-2,-2.0080419E-1,-2.4420938E-1,2.8412667E-1,1.7109789E-2,-2.4891925E-1,1.4138672E-1,3.2068465E-2,8.8394314E-2,-2.7738285E-1,-2.544428E-1,1.1911317E-1,1.4595959E-1,9.584653E-2,-2.5260624E-1,8.6059466E-2,6.532177E-2,2.740224E-1,6.662334E-2,-1.3483939E-1,-1.5559123E-2,8.798857E-2],"split_indices":[13,10,3,10,5,9,6,11,3,11,11,2,12,5,2,12,12,2,5,10,9,6,11,3,2,10,5,3,2,1,2,2,0,2,2,3,5,7,4,9,11,4,10,12,11,10,11,0,0,1,10,0,10,12,11,3,1,6,5,0,9,2,5,0,0,0,0,0,0,0,0,0,0,0,0,0,0,0,0,0,0,0,0,0,0,0,0,0,0,0,0,0,0,0,0,0,0,0,0,0,0,0,0,0,0,0,0,0,0,0,0,0,0,0,0,0,0,0,0],"split_type":[0,0,0,0,0,0,0,0,0,0,0,0,0,0,0,0,0,0,0,0,0,0,0,0,0,0,0,0,0,0,0,0,0,0,0,0,0,0,0,0,0,0,0,0,0,0,0,0,0,0,0,0,0,0,0,0,0,0,0,0,0,0,0,0,0,0,0,0,0,0,0,0,0,0,0,0,0,0,0,0,0,0,0,0,0,0,0,0,0,0,0,0,0,0,0,0,0,0,0,0,0,0,0,0,0,0,0,0,0,0,0,0,0,0,0,0,0,0,0],"sum_hessian":[1.1225242E4,7.692887E3,3.5323547E3,2.6866223E3,5.006265E3,9.342552E2,2.5980996E3,3.5754453E2,2.329078E3,4.5195493E3,4.867155E2,1.9242393E2,7.4183124E2,2.3229683E3,2.7513126E2,1.7110771E2,1.8643683E2,7.1894275E2,1.610135E3,3.7268503E2,4.1468647E3,3.0020764E2,1.8650787E2,5.126912E0,1.8729703E2,7.5574217E0,7.342738E2,1.5461096E3,7.768587E2,1.2818699E1,2.6231256E2,1.6647264E2,4.635067E0,3.2557777E1,1.5387906E2,2.2688293E2,4.9205984E2,1.3465205E3,2.636145E2,3.2472235E2,4.796268E1,8.5445E2,3.2924146E3,1.3009416E2,1.7011348E2,3.4438416E1,1.5206946E2,1.7234414E0,3.4034708E0,1.8137413E2,5.9228888E0,2.0999455E0,5.457476E0,6.283397E2,1.0593409E2,8.630424E2,6.830672E2,7.731856E2,3.6731048E0,1.7347648E0,1.1083934E1,2.8362354E1,2.339502E2,1.5580032E2,1.0672313E1,2.5153353E0,2.1197317E0,4.165352E0,2.8392426E1,1.5282228E2,1.056771E0,8.799959E1,1.3888335E2,4.7533008E2,1.6729769E1,1.2161477E3,1.3037288E2,3.1229448E1,2.3238504E2,6.7314384E1,2.5740796E2,2.3082937E1,2.4879744E1,1.9741943E2,6.570306E2,2.1781094E3,1.1143052E3,1.2032128E1,1.1806203E2,2.4550045E0,1.6765848E2,1.1069384E1,2.3369034E1,7.6652145E0,1.4440424E2,1.5664878E0,1.7980765E2,2.2789934E0,3.6438954E0,1.2367276E0,4.2207484E0,6.207054E2,7.6343412E0,5.383953E1,5.209456E1,8.613327E2,1.7096933E0,1.9273692E0,6.8113983E2,6.0448694E2,1.6869867E2,2.4181561E0,1.2549486E0,1.9243357E0,9.159598E0,1.3609359E1,1.47529955E1,4.8445713E1,1.8550449E2],"tree_param":{"num_deleted":"0","num_feature":"14","num_nodes":"119","size_leaf_vector":"1"}},{"base_weights":[8.4571785E-4,-1.1803519E-1,1.9393969E-1,-1.8540701E-1,-5.7496685E-3,8.4071934E-2,2.6708165E-1,-4.692506E-1,-1.627759E-1,-3.0662352E-1,1.1513766E-2,5.31177E-2,2.680172E-1,3.6732456E-1,2.4590302E-1,-4.9238873E-1,1.6635887E-1,-2.0851551E-1,-2.869658E-2,-5.4024434E-1,4.699919E-2,2.412585E-2,-3.0474994E-1,3.2862797E-2,2.7338782E-1,1.9243346E-1,4.253933E-1,-1.5122631E-1,3.834118E-1,2.1259664E-1,3.2468745E-1,-6.181265E-1,-4.0273207E-1,-1.91415E-1,6.307508E-1,-4.5348614E-1,-1.844107E-1,1.7199823E-1,-8.112181E-2,-5.8505636E-1,3.8586825E-2,-1.3567223E-1,7.832882E-1,9.197872E-3,3.5805383E-1,-1.632056E-1,-9.869154E-1,-1.7925212E-1,5.4458432E-2,4.0825844E-1,5.9465818E-2,2.5919333E-1,-4.1400498E-1,4.7536266E-1,2.6332216E-2,9.086831E-2,-2.8950974E-1,1.5448205E-1,4.1683218E-1,1.6016938E-1,2.7780542E-1,3.3863848E-1,-1.2489016E-1,-1.5257382E-1,-2.486382E-1,-1.874087E-1,-1.0534458E-1,-1.7014055E-1,1.2957577E-1,1.1061725E-2,2.397807E-1,-1.5379938E-1,-8.52717E-3,-5.8629967E-2,9.861958E-2,-9.359093E-2,6.882541E-2,-3.9307903E-2,2.9677087E-2,-2.0442933E-1,-1.1480314E-1,-1.12383015E-1,2.89998E-1,3.3733672E-3,-3.076E-1,-2.242002E-2,4.3307167E-1,-9.8445274E-2,5.371265E-3,1.2816726E-1,-1.7034546E-1,-6.9048576E-2,2.0134088E-1,-3.4528458E-1,4.0223815E-2,-7.775243E-2,3.0552225E-2,2.3032852E-2,-5.0604414E-2,-2.069256E-1,1.3324396E-1,8.086403E-2,-1.5085626E-1,8.354366E-2,-2.4663293E-1,-1.2904346E-2,-2.723178E-1,1.15240015E-1,2.2769591E-1,1.8372254E-1,-1.2916028E-1,-8.137203E-2,2.3195587E-1,-4.4943295E-2,1.7269562E-1,2.7553441E-2,1.3489257E-1,5.2533597E-2,-3.0162068E-2,8.7431915E-2,-5.7092454E-2,1.1452275E-1,5.8982965E-2,2.7188314E-2,-3.542766E-1],"categories":[],"categories_nodes":[],"categories_segments":[],"categories_sizes":[],"default_left":[0,0,0,0,0,0,0,0,0,0,0,0,0,0,0,0,0,0,0,0,0,0,0,0,0,0,0,0,0,0,0,0,0,0,0,0,0,0,0,0,0,0,0,0,0,0,0,0,0,0,0,0,0,0,0,0,0,0,0,0,0,0,0,0,0,0,0,0,0,0,0,0,0,0,0,0,0,0,0,0,0,0,0,0,0,0,0,0,0,0,0,0,0,0,0,0,0,0,0,0,0,0,0,0,0,0,0,0,0,0,0,0,0,0,0,0,0,0,0,0,0,0,0,0,0],"id":6,"left_children":[1,3,5,7,9,11,13,15,17,19,21,23,25,27,29,31,33,35,37,39,41,43,45,47,49,51,53,55,57,59,61,63,65,67,69,71,73,75,77,79,81,83,85,87,89,91,93,95,97,99,101,103,105,107,109,111,-1,113,115,117,119,121,123,-1,-1,-1,-1,-1,-1,-1,-1,-1,-1,-1,-1,-1,-1,-1,-1,-1,-1,-1,-1,-1,-1,-1,-1,-1,-1,-1,-1,-1,-1,-1,-1,-1,-1,-1,-1,-1,-1,-1,-1,-1,-1,-1,-1,-1,-1,-1,-1,-1,-1,-1,-1,-1,-1,-1,-1,-1,-1,-1,-1,-1,-1],"loss_changes":[2.5015749E2,5.1024048E1,3.3347992E1,2.7003235E1,1.3146826E1,9.443954E0,5.201355E0,4.6522217E0,2.3947395E1,1.1372139E1,9.556698E0,6.340215E0,2.7613068E0,3.6678276E0,5.3385773E0,3.13414E0,2.0584745E0,1.7112572E1,1.0479274E1,2.1699524E0,7.579067E0,1.1477801E1,8.710928E0,5.98485E0,3.42939E0,6.718486E0,1.5174236E0,2.7943127E0,3.148922E0,4.9172974E0,3.871048E0,2.4181175E0,1.8192959E0,1.9674412E0,5.0174975E-1,6.5305595E0,1.5069702E1,5.80538E0,7.1051745E0,1.239111E0,3.003048E0,5.941448E0,6.4485383E0,6.4840593E0,6.5527287E0,4.4723945E0,3.0211916E0,2.7394156E0,5.91236E0,3.1926613E0,5.741808E0,3.3093672E0,2.9976292E0,1.4712276E0,2.8332644E0,3.0515718E0,0E0,7.1466265E0,3.8601952E0,3.1609879E0,4.1751137E0,3.551262E0,4.454848E0,0E0,0E0,0E0,0E0,0E0,0E0,0E0,0E0,0E0,0E0,0E0,0E0,0E0,0E0,0E0,0E0,0E0,0E0,0E0,0E0,0E0,0E0,0E0,0E0,0E0,0E0,0E0,0E0,0E0,0E0,0E0,0E0,0E0,0E0,0E0,0E0,0E0,0E0,0E0,0E0,0E0,0E0,0E0,0E0,0E0,0E0,0E0,0E0,0E0,0E0,0E0,0E0,0E0,0E0,0E0,0E0,0E0,0E0,0E0,0E0,0E0,0E0],"parents":[2147483647,0,0,1,1,2,2,3,3,4,4,5,5,6,6,7,7,8,8,9,9,10,10,11,11,12,12,13,13,14,14,15,15,16,16,17,17,18,18,19,19,20,20,21,21,22,22,23,23,24,24,25,25,26,26,27,27,28,28,29,29,30,30,31,31,32,32,33,33,34,34,35,35,36,36,37,37,38,38,39,39,40,40,41,41,42,42,43,43,44,44,45,45,46,46,47,47,48,48,49,49,50,50,51,51,52,52,53,53,54,54,55,55,57,57,58,58,59,59,60,60,61,61,62,62],"right_children":[2,4,6,8,10,12,14,16,18,20,22,24,26,28,30,32,34,36,38,40,42,44,46,48,50,52,54,56,58,60,62,64,66,68,70,72,74,76,78,80,82,84,86,88,90,92,94,96,98,100,102,104,106,108,110,112,-1,114,116,118,120,122,124,-1,-1,-1,-1,-1,-1,-1,-1,-1,-1,-1,-1,-1,-1,-1,-1,-1,-1,-1,-1,-1,-1,-1,-1,-1,-1,-1,-1,-1,-1,-1,-1,-1,-1,-1,-1,-1,-1,-1,-1,-1,-1,-1,-1,-1,-1,-1,-1,-1,-1,-1,-1,-1,-1,-1,-1,-1,-1,-1,-1,-1,-1],"split_conditions":[1.3E2,5.6E1,1.35E2,4.1E1,1.1E2,3E0,4.9E1,9E1,7.85E1,6.95E1,1E0,6.3E1,8.43E1,5.52E1,6E1,2.409297E1,2.695984E1,1.03E2,1E0,3E0,3.9E1,9.6E1,4.1E1,8E1,6.4E1,8.11E1,1E0,5.435E1,4.1E1,1.45E2,4.109139E1,2.3148148E1,4E1,1.7E2,1.16E2,2E0,3.1184587E1,2.6813591E1,2E0,1.63E2,6.2E1,1.72E2,1.65E2,5.15E1,1E0,3.452709E1,6.3E1,3.082483E1,1.76E2,5.52E1,3.1221304E1,1.79E2,2E0,1.73E2,8.1E1,4.7E1,-2.8950974E-1,1.7E2,2.3384354E1,1.78E2,9.1E1,2E0,1.67E2,-1.5257382E-1,-2.486382E-1,-1.874087E-1,-1.0534458E-1,-1.7014055E-1,1.2957577E-1,1.1061725E-2,2.397807E-1,-1.5379938E-1,-8.52717E-3,-5.8629967E-2,9.861958E-2,-9.359093E-2,6.882541E-2,-3.9307903E-2,2.9677087E-2,-2.0442933E-1,-1.1480314E-1,-1.12383015E-1,2.89998E-1,3.3733672E-3,-3.076E-1,-2.242002E-2,4.3307167E-1,-9.8445274E-2,5.371265E-3,1.2816726E-1,-1.7034546E-1,-6.9048576E-2,2.0134088E-1,-3.4528458E-1,4.0223815E-2,-7.775243E-2,3.0552225E-2,2.3032852E-2,-5.0604414E-2,-2.069256E-1,1.3324396E-1,8.086403E-2,-1.5085626E-1,8.354366E-2,-2.4663293E-1,-1.2904346E-2,-2.723178E-1,1.15240015E-1,2.2769591E-1,1.8372254E-1,-1.2916028E-1,-8.137203E-2,2.3195587E-1,-4.4943295E-2,1.7269562E-1,2.7553441E-2,1.3489257E-1,5.2533597E-2,-3.0162068E-2,8.7431915E-2,-5.7092454E-2,1.1452275E-1,5.8982965E-2,2.7188314E-2,-3.542766E-1],"split_indices":[3,10,3,10,3,5,10,4,2,2,8,10,2,2,10,11,11,3,9,5,12,2,12,4,10,2,7,2,10,3,11,11,12,1,3,6,11,11,5,1,10,1,1,2,7,11,10,11,1,2,11,1,0,1,4,10,0,1,11,1,12,6,1,0,0,0,0,0,0,0,0,0,0,0,0,0,0,0,0,0,0,0,0,0,0,0,0,0,0,0,0,0,0,0,0,0,0,0,0,0,0,0,0,0,0,0,0,0,0,0,0,0,0,0,0,0,0,0,0,0,0,0,0,0,0],"split_type":[0,0,0,0,0,0,0,0,0,0,0,0,0,0,0,0,0,0,0,0,0,0,0,0,0,0,0,0,0,0,0,0,0,0,0,0,0,0,0,0,0,0,0,0,0,0,0,0,0,0,0,0,0,0,0,0,0,0,0,0,0,0,0,0,0,0,0,0,0,0,0,0,0,0,0,0,0,0,0,0,0,0,0,0,0,0,0,0,0,0,0,0,0,0,0,0,0,0,0,0,0,0,0,0,0,0,0,0,0,0,0,0,0,0,0,0,0,0,0,0,0,0,0,0,0],"sum_hessian":[1.0895649E4,6.7440024E3,4.1516475E3,4.2145825E3,2.52942E3,1.6601133E3,2.491534E3,3.0976154E2,3.9048208E3,1.3634715E2,2.3930728E3,1.4220928E3,2.3802045E2,4.3172873E2,2.0598052E3,2.9909875E2,1.0662779E1,2.9111577E3,9.9366315E2,8.17869E1,5.4560257E1,2.302189E3,9.088385E1,1.303389E3,1.1870372E2,1.622964E2,7.572406E1,1.2737936E1,4.1899078E2,1.4503596E3,6.094456E2,1.2204457E2,1.7705418E2,6.354783E0,4.307996E0,2.5919693E2,2.651961E3,2.0533122E2,7.883319E2,7.59001E1,5.8867974E0,4.4368324E1,1.0191933E1,2.204659E3,9.752994E1,7.6292885E1,1.4590969E1,1.1976291E2,1.1836262E3,7.224637E1,4.645735E1,1.4671756E2,1.5578832E1,6.712735E1,8.596708E0,1.0502074E1,2.2358615E0,5.40908E1,3.649E2,8.058887E2,6.4447095E2,5.913422E2,1.8103443E1,8.25386E1,3.9505974E1,3.1292461E1,1.4576172E2,4.0211554E0,2.3336277E0,1.2216296E0,3.0863664E0,2.2733989E2,3.1857035E1,2.5967998E3,5.516115E1,2.1307323E1,1.840239E2,6.1745856E2,1.7087334E2,4.9812077E1,2.6088026E1,4.4859285E0,1.4008688E0,3.892731E1,5.441015E0,4.8179502E0,5.3739824E0,5.4543545E1,2.1501155E3,9.1251274E1,6.278661E0,7.1295525E1,4.997359E0,1.270513E1,1.8858391E0,9.3310165E1,2.6452738E1,1.0766036E3,1.0702257E2,1.70996E0,7.053641E1,3.420072E1,1.2256626E1,1.448761E2,1.8414695E0,9.515697E0,6.0631356E0,5.2571712E1,1.4555635E1,3.6166952E0,4.980013E0,7.254539E0,3.2475357E0,3.1776646E1,2.2314156E1,3.380944E1,3.3109055E2,7.625134E2,4.337525E1,6.265981E2,1.78729E1,4.523666E2,1.389756E2,1.5794283E1,2.30916E0],"tree_param":{"num_deleted":"0","num_feature":"14","num_nodes":"125","size_leaf_vector":"1"}},{"base_weights":[5.299016E-4,-8.533333E-2,1.4186588E-1,-2.7927715E-1,-5.972958E-2,6.1364364E-2,2.0020162E-1,-6.0555786E-1,-2.3690748E-1,-4.557166E-2,-3.6755866E-1,-5.1445916E-2,9.3685955E-2,-2.7719617E-1,2.037231E-1,-5.300517E-1,-9.4964635E-1,-3.7569764E-1,-1.6459802E-1,-7.514701E-2,8.473182E-2,-8.620237E-1,-3.0432642E-1,-3.354274E-2,-9.9823236E-1,2.2745816E-1,5.9148014E-2,-5.881642E-1,2.0063259E-1,1.7129502E-1,2.4515031E-1,-7.1453863E-1,-2.965116E-1,-2.995247E-1,-5.154265E-2,-1.0852359E-1,-4.3427533E-1,-2.3384455E-1,1.1468154E-2,-1.7904353E-1,-4.1186243E-2,-7.117296E-2,1.1877148E-1,-9.55416E-1,-5.4769464E-2,-6.115555E-1,-1.8673049E-1,6.0879444E-3,-3.9917874E-1,-3.7077492E-1,-4.3392923E-1,2.496357E-1,-5.721837E-1,2.720898E-1,2.2827376E-2,8.369771E-2,-7.206854E-1,-1.8699571E-1,4.3945867E-1,2.2703478E-1,1.323526E-1,3.610512E-1,2.2270143E-1,-2.4737981E-1,-8.952255E-2,-1.6690989E-1,5.6316722E-2,6.1133612E-2,-1.0061481E-1,-1.7088054E-1,-8.33335E-2,4.102644E-1,-7.291784E-2,-5.260786E-2,1.11126356E-1,-9.831553E-2,-3.55059E-2,1.9341554E-2,-2.0866748E-2,-5.8454417E-2,6.777051E-2,5.8230568E-2,5.7892064E-3,-2.993686E-1,-9.423045E-2,-2.5129724E-1,2.3274602E-1,-3.004403E-1,-1.4314581E-1,-1.4514418E-1,-1.8207561E-2,5.584083E-2,-2.6304204E-2,3.032455E-3,-2.824619E-1,-2.458675E-1,1.3397114E-1,6.829695E-2,2.4547856E-1,-3.4358025E-1,1.5051191E-2,1.0562377E-1,-1.05272755E-1,-5.5292696E-3,4.310267E-2,-2.760653E-1,3.881873E-2,1.8696435E-1,-8.552961E-2,5.263507E-2,1.3563316E-1,-8.076806E-2,4.4519834E-2,-2.8535523E-2,1.3120113E-1,1.0284082E-1,5.281315E-2],"categories":[],"categories_nodes":[],"categories_segments":[],"categories_sizes":[],"default_left":[0,0,0,0,0,0,0,0,0,0,0,0,0,0,0,0,0,0,0,0,0,0,0,0,0,0,0,0,0,0,0,0,0,0,0,0,0,0,0,0,0,0,0,0,0,0,0,0,0,0,0,0,0,0,0,0,0,0,0,0,0,0,0,0,0,0,0,0,0,0,0,0,0,0,0,0,0,0,0,0,0,0,0,0,0,0,0,0,0,0,0,0,0,0,0,0,0,0,0,0,0,0,0,0,0,0,0,0,0,0,0,0,0,0,0,0,0],"id":7,"left_children":[1,3,5,7,9,11,13,15,17,19,21,23,25,27,29,31,33,35,37,39,41,43,45,47,49,51,53,55,57,59,61,63,65,-1,-1,67,69,71,73,75,77,79,81,83,85,87,89,91,93,95,-1,97,99,101,103,-1,105,-1,107,109,111,113,115,-1,-1,-1,-1,-1,-1,-1,-1,-1,-1,-1,-1,-1,-1,-1,-1,-1,-1,-1,-1,-1,-1,-1,-1,-1,-1,-1,-1,-1,-1,-1,-1,-1,-1,-1,-1,-1,-1,-1,-1,-1,-1,-1,-1,-1,-1,-1,-1,-1,-1,-1,-1,-1,-1],"loss_changes":[1.2916066E2,3.2860603E1,1.8876732E1,1.0527039E1,2.547897E1,6.1723447E0,3.9765244E0,1.7847328E0,6.8106117E0,2.1564144E1,7.7757835E0,6.362764E0,6.062784E0,2.7179909E0,3.0683594E0,2.9972763E0,3.8172913E-1,3.6117363E0,5.513507E0,1.6081001E1,5.5025835E0,2.1041012E0,8.1768055E0,5.383886E0,1.4233494E0,4.9225464E0,8.088542E0,1.4483674E0,1.7780813E0,2.796154E0,2.5585518E0,1.6272583E0,4.4558015E0,0E0,0E0,3.1412885E0,3.895565E0,5.12035E0,8.685451E0,1.0093891E1,1.0308933E1,6.883478E0,6.36654E0,3.8332176E-1,3.268334E0,2.8280811E0,6.2387614E0,5.689785E0,8.074543E0,1.9242733E0,0E0,3.0999832E0,2.7598908E0,7.7188444E0,4.466137E0,0E0,1.7633896E0,0E0,1.0447766E0,6.1219788E0,4.99479E0,5.712715E0,4.7156143E0,0E0,0E0,0E0,0E0,0E0,0E0,0E0,0E0,0E0,0E0,0E0,0E0,0E0,0E0,0E0,0E0,0E0,0E0,0E0,0E0,0E0,0E0,0E0,0E0,0E0,0E0,0E0,0E0,0E0,0E0,0E0,0E0,0E0,0E0,0E0,0E0,0E0,0E0,0E0,0E0,0E0,0E0,0E0,0E0,0E0,0E0,0E0,0E0,0E0,0E0,0E0,0E0,0E0,0E0],"parents":[2147483647,0,0,1,1,2,2,3,3,4,4,5,5,6,6,7,7,8,8,9,9,10,10,11,11,12,12,13,13,14,14,15,15,16,16,17,17,18,18,19,19,20,20,21,21,22,22,23,23,24,24,25,25,26,26,27,27,28,28,29,29,30,30,31,31,32,32,35,35,36,36,37,37,38,38,39,39,40,40,41,41,42,42,43,43,44,44,45,45,46,46,47,47,48,48,49,49,51,51,52,52,53,53,54,54,56,56,58,58,59,59,60,60,61,61,62,62],"right_children":[2,4,6,8,10,12,14,16,18,20,22,24,26,28,30,32,34,36,38,40,42,44,46,48,50,52,54,56,58,60,62,64,66,-1,-1,68,70,72,74,76,78,80,82,84,86,88,90,92,94,96,-1,98,100,102,104,-1,106,-1,108,110,112,114,116,-1,-1,-1,-1,-1,-1,-1,-1,-1,-1,-1,-1,-1,-1,-1,-1,-1,-1,-1,-1,-1,-1,-1,-1,-1,-1,-1,-1,-1,-1,-1,-1,-1,-1,-1,-1,-1,-1,-1,-1,-1,-1,-1,-1,-1,-1,-1,-1,-1,-1,-1,-1,-1,-1],"split_conditions":[1.3E2,4.4E1,1.39E2,5.8E1,1E0,2.4456064E1,6.9E1,2.2862368E1,7.8E1,2E0,4.7E1,1.84E2,1E0,9.8E1,1.49E2,2.0715694E1,2E0,1E0,2.8305996E1,1.19E2,3.8E1,4.6E1,8E1,2.421875E1,7.82E1,4.3283527E1,6.82E1,2.34375E1,4.7E1,2.700513E1,4.9E1,5.5E1,4.2E1,-2.995247E-1,-5.154265E-2,1.64E2,2.5727554E1,1.882711E1,2E0,1.59E2,1E0,8.5E1,2E0,8.1E1,1.68E2,1.6E2,6.82E1,4.4E1,2E0,7.32E1,-4.3392923E-1,3.968254E1,1.14E2,2.8305996E1,3.341241E1,8.369771E-2,8.55E1,-1.8699571E-1,3.452709E1,2.6026175E1,6.75E1,6.41E1,2.5909456E1,-2.4737981E-1,-8.952255E-2,-1.6690989E-1,5.6316722E-2,6.1133612E-2,-1.0061481E-1,-1.7088054E-1,-8.33335E-2,4.102644E-1,-7.291784E-2,-5.260786E-2,1.11126356E-1,-9.831553E-2,-3.55059E-2,1.9341554E-2,-2.0866748E-2,-5.8454417E-2,6.777051E-2,5.8230568E-2,5.7892064E-3,-2.993686E-1,-9.423045E-2,-2.5129724E-1,2.3274602E-1,-3.004403E-1,-1.4314581E-1,-1.4514418E-1,-1.8207561E-2,5.584083E-2,-2.6304204E-2,3.032455E-3,-2.824619E-1,-2.458675E-1,1.3397114E-1,6.829695E-2,2.4547856E-1,-3.4358025E-1,1.5051191E-2,1.0562377E-1,-1.05272755E-1,-5.5292696E-3,4.310267E-2,-2.760653E-1,3.881873E-2,1.8696435E-1,-8.552961E-2,5.263507E-2,1.3563316E-1,-8.076806E-2,4.4519834E-2,-2.8535523E-2,1.3120113E-1,1.0284082E-1,5.281315E-2],"split_indices":[3,10,3,2,8,11,4,11,4,5,10,1,9,12,3,11,0,9,11,3,12,12,4,11,2,11,2,11,10,11,10,2,10,0,0,1,11,11,0,1,9,4,6,4,1,1,2,12,0,2,0,11,2,11,11,0,2,0,11,11,2,2,11,0,0,0,0,0,0,0,0,0,0,0,0,0,0,0,0,0,0,0,0,0,0,0,0,0,0,0,0,0,0,0,0,0,0,0,0,0,0,0,0,0,0,0,0,0,0,0,0,0,0,0,0,0,0],"split_type":[0,0,0,0,0,0,0,0,0,0,0,0,0,0,0,0,0,0,0,0,0,0,0,0,0,0,0,0,0,0,0,0,0,0,0,0,0,0,0,0,0,0,0,0,0,0,0,0,0,0,0,0,0,0,0,0,0,0,0,0,0,0,0,0,0,0,0,0,0,0,0,0,0,0,0,0,0,0,0,0,0,0,0,0,0,0,0,0,0,0,0,0,0,0,0,0,0,0,0,0,0,0,0,0,0,0,0,0,0,0,0,0,0,0,0,0,0],"sum_hessian":[1.0641154E4,6.6198906E3,4.0212634E3,7.708597E2,5.8490312E3,1.6904904E3,2.330773E3,8.706861E1,6.837911E2,5.592944E3,2.560871E2,3.7634888E2,1.3141415E3,1.6497784E1,2.3142751E3,7.348389E1,1.3584722E1,2.3278664E2,4.5100446E2,4.5586724E3,1.0342715E3,2.7603094E1,2.2848401E2,3.703806E2,5.968252E0,2.6852106E2,1.0456205E3,9.85397E0,6.6438136E0,1.3010127E3,1.0132625E3,3.9902767E1,3.3581123E1,1.2516384E1,1.0683374E0,4.237339E1,1.9041325E2,3.2346002E2,1.2754443E2,1.121964E3,3.4367085E3,1.8515475E2,8.4911676E2,2.4576292E1,3.026802E0,6.2083973E1,1.6640004E2,3.350486E2,3.5332016E1,3.2481897E0,2.7200625E0,2.6194403E2,6.577028E0,1.5141405E2,8.942064E2,1.1597631E0,8.694207E0,1.1312084E0,5.512605E0,5.3311487E2,7.678978E2,1.6196634E2,8.5129614E2,3.0780231E1,9.122537E0,2.17568E1,1.1824323E1,1.7871958E1,2.4501434E1,1.00697876E2,8.971537E1,1.0072728E0,3.2245273E2,8.422073E1,4.3323696E1,3.239579E2,7.9800616E2,7.2717737E2,2.709531E3,1.3097337E2,5.4181385E1,4.8265634E2,3.664604E2,2.252807E1,2.0482223E0,1.5537634E0,1.4730388E0,1.4260886E1,4.782309E1,4.8721302E1,1.17678734E2,1.1440014E2,2.2064847E2,2.0695635E1,1.463638E1,2.0951107E0,1.153079E0,2.535441E2,8.399934E0,2.9866276E0,3.5904002E0,1.3457082E2,1.6843237E1,6.672507E2,2.2695576E2,6.974611E0,1.7195958E0,4.508953E0,1.0036519E0,4.3516092E2,9.795393E1,2.8899393E1,7.389985E2,2.3169853E1,1.387965E2,2.3640897E2,6.148872E2],"tree_param":{"num_deleted":"0","num_feature":"14","num_nodes":"117","size_leaf_vector":"1"}},{"base_weights":[1.139144E-5,-5.3139646E-2,1.2282921E-1,-9.786489E-2,3.3268586E-2,9.169984E-2,1.7980406E-1,-2.6992214E-1,-7.395068E-2,-8.035982E-2,6.9246225E-2,-1.8268043E-1,9.9429406E-2,2.3434609E-1,9.483636E-2,-2.4887645E-1,-8.5128736E-1,-2.7613834E-1,-6.1292656E-2,-2.0709041E-1,-1.3576336E-3,8.2470626E-2,-2.5486508E-1,-3.3083573E-1,4.8854494E-1,1.6493903E-1,6.48888E-2,2.48289E-1,-3.6936358E-1,6.7049146E-2,3.9878908E-1,-2.9948953E-1,-2.1755705E-2,-2.3493086E-1,-9.501445E-1,-3.4257576E-1,1.2463269E-1,-4.9842075E-2,-2.748216E-1,3.290685E-2,-2.6617917E-1,-6.857615E-2,2.916774E-1,4.808807E-2,1.939754E-1,-4.176791E-1,4.3685877E-1,-5.084422E-2,-6.810777E-1,8.0801076E-1,1.04975635E-2,1.15531094E-1,2.9121006E-1,7.833769E-2,-2.4210419E-1,2.2885093E-1,5.379145E-1,-7.752592E-1,1.924162E-1,-8.6638564E-1,7.443324E-2,-1.7902902E-1,4.5321217E-1,-1.4870484E-1,-7.147543E-2,-1.0773148E-1,2.683367E-2,-1.9632073E-1,3.6900822E-2,-3.339471E-1,-1.206496E-1,-1.2432758E-1,-4.4044253E-4,1.9364937E-1,-1.06734E-1,-8.241873E-2,-1.1233715E-2,-9.897327E-2,1.2702721E-1,-2.979517E-2,1.4886793E-1,1.2949751E-2,-9.584895E-2,9.71897E-3,-5.464084E-2,1.6600321E-1,-9.475088E-2,4.3259705E-3,4.7790177E-2,1.8742971E-1,4.792373E-2,-1.6978289E-1,6.112508E-2,1.9549198E-1,-2.1413562E-1,2.7245152E-1,-6.8864025E-2,-2.7818865E-1,1.1781296E-1,6.6632174E-2,3.4937197E-1,9.542558E-2,-1.5775572E-1,4.0581793E-2,-1.1659971E-1,6.792665E-2,2.2607046E-1,1.1496124E-2,4.884323E-2,4.9451496E-2,-1.8088162E-1,1.10464334E-1,6.008051E-2,-9.983724E-2,1.9584379E-1,-3.3639097E-1,2.1046488E-1,-2.4193646E-1,1.677061E-1,-2.7399275E-2,-3.8061857E-1,2.8129514E-2,-8.98898E-2,2.332868E-1,6.4015515E-2],"categories":[],"categories_nodes":[],"categories_segments":[],"categories_sizes":[],"default_left":[0,0,0,0,0,0,0,0,0,0,0,0,0,0,0,0,0,0,0,0,0,0,0,0,0,0,0,0,0,0,0,0,0,0,0,0,0,0,0,0,0,0,0,0,0,0,0,0,0,0,0,0,0,0,0,0,0,0,0,0,0,0,0,0,0,0,0,0,0,0,0,0,0,0,0,0,0,0,0,0,0,0,0,0,0,0,0,0,0,0,0,0,0,0,0,0,0,0,0,0,0,0,0,0,0,0,0,0,0,0,0,0,0,0,0,0,0,0,0,0,0,0,0,0,0],"id":8,"left_children":[1,3,5,7,9,11,13,15,17,19,21,23,25,27,29,31,33,35,37,39,41,43,45,47,49,51,53,55,57,59,61,63,65,67,69,71,73,75,77,79,81,83,85,87,89,91,93,95,97,99,101,103,105,107,109,111,113,115,117,119,121,-1,123,-1,-1,-1,-1,-1,-1,-1,-1,-1,-1,-1,-1,-1,-1,-1,-1,-1,-1,-1,-1,-1,-1,-1,-1,-1,-1,-1,-1,-1,-1,-1,-1,-1,-1,-1,-1,-1,-1,-1,-1,-1,-1,-1,-1,-1,-1,-1,-1,-1,-1,-1,-1,-1,-1,-1,-1,-1,-1,-1,-1,-1,-1],"loss_changes":[6.827064E1,2.821268E1,5.5861244E0,1.9771599E1,1.0186212E1,4.3549175E0,5.1453896E0,6.965206E0,1.0794754E1,6.000327E0,8.130387E0,5.768269E0,4.4909077E0,5.802559E0,3.6694427E0,6.5171776E0,1.0002728E0,6.662159E0,9.709863E0,3.2724524E0,7.311953E0,6.9627285E0,8.563242E0,4.552951E0,1.6100204E0,4.2472553E0,5.403947E0,3.6135674E0,3.7331145E0,2.8364778E0,2.2455902E0,5.456768E0,3.952264E0,6.9666845E-1,1.0687428E0,5.2324734E0,9.25931E0,1.051548E1,7.916932E0,2.8892725E0,3.061533E0,3.4680195E0,1.118548E1,5.2071714E0,6.215353E0,5.712349E0,4.0898724E0,4.849146E0,5.8376255E0,1.0657182E0,1.0347729E0,4.9781513E0,5.59042E0,4.2202215E0,8.173279E0,2.4108086E0,4.3194E0,5.5513425E0,3.1583924E0,8.9310336E-1,2.9201746E0,0E0,2.5675073E0,0E0,0E0,0E0,0E0,0E0,0E0,0E0,0E0,0E0,0E0,0E0,0E0,0E0,0E0,0E0,0E0,0E0,0E0,0E0,0E0,0E0,0E0,0E0,0E0,0E0,0E0,0E0,0E0,0E0,0E0,0E0,0E0,0E0,0E0,0E0,0E0,0E0,0E0,0E0,0E0,0E0,0E0,0E0,0E0,0E0,0E0,0E0,0E0,0E0,0E0,0E0,0E0,0E0,0E0,0E0,0E0,0E0,0E0,0E0,0E0,0E0,0E0],"parents":[2147483647,0,0,1,1,2,2,3,3,4,4,5,5,6,6,7,7,8,8,9,9,10,10,11,11,12,12,13,13,14,14,15,15,16,16,17,17,18,18,19,19,20,20,21,21,22,22,23,23,24,24,25,25,26,26,27,27,28,28,29,29,30,30,31,31,32,32,33,33,34,34,35,35,36,36,37,37,38,38,39,39,40,40,41,41,42,42,43,43,44,44,45,45,46,46,47,47,48,48,49,49,50,50,51,51,52,52,53,53,54,54,55,55,56,56,57,57,58,58,59,59,60,60,62,62],"right_children":[2,4,6,8,10,12,14,16,18,20,22,24,26,28,30,32,34,36,38,40,42,44,46,48,50,52,54,56,58,60,62,64,66,68,70,72,74,76,78,80,82,84,86,88,90,92,94,96,98,100,102,104,106,108,110,112,114,116,118,120,122,-1,124,-1,-1,-1,-1,-1,-1,-1,-1,-1,-1,-1,-1,-1,-1,-1,-1,-1,-1,-1,-1,-1,-1,-1,-1,-1,-1,-1,-1,-1,-1,-1,-1,-1,-1,-1,-1,-1,-1,-1,-1,-1,-1,-1,-1,-1,-1,-1,-1,-1,-1,-1,-1,-1,-1,-1,-1,-1,-1,-1,-1,-1,-1],"split_conditions":[1E0,5.7E1,2E0,5.98E1,2.3711845E1,2.0715694E1,2E0,1E0,1.03E2,1.63E2,1E0,6.1E1,2.6026175E1,4.3283527E1,1.66E2,2E0,1.882711E1,2E0,1E0,1E0,6.3E1,2E0,6.3E1,2E0,2.0028841E1,2.4913494E1,3E0,3.7877213E1,5.7E1,5E1,2.3140495E1,4.5E1,2.020202E1,1E0,2.265625E1,2E0,6.6E1,4.1E1,3E0,2.3384354E1,5.8E1,2E0,6.64E1,8.29E1,2.421875E1,2E0,9.6E1,3.9E1,1.51E2,5.15E1,2E0,1.63E2,1.56E2,8.85E1,1.63E2,4.9E1,1.51E2,6.1E1,8.1E1,5.6E1,1.79E2,-1.7902902E-1,3E0,-1.4870484E-1,-7.147543E-2,-1.0773148E-1,2.683367E-2,-1.9632073E-1,3.6900822E-2,-3.339471E-1,-1.206496E-1,-1.2432758E-1,-4.4044253E-4,1.9364937E-1,-1.06734E-1,-8.241873E-2,-1.1233715E-2,-9.897327E-2,1.2702721E-1,-2.979517E-2,1.4886793E-1,1.2949751E-2,-9.584895E-2,9.71897E-3,-5.464084E-2,1.6600321E-1,-9.475088E-2,4.3259705E-3,4.7790177E-2,1.8742971E-1,4.792373E-2,-1.6978289E-1,6.112508E-2,1.9549198E-1,-2.1413562E-1,2.7245152E-1,-6.8864025E-2,-2.7818865E-1,1.1781296E-1,6.6632174E-2,3.4937197E-1,9.542558E-2,-1.5775572E-1,4.0581793E-2,-1.1659971E-1,6.792665E-2,2.2607046E-1,1.1496124E-2,4.884323E-2,4.9451496E-2,-1.8088162E-1,1.10464334E-1,6.008051E-2,-9.983724E-2,1.9584379E-1,-3.3639097E-1,2.1046488E-1,-2.4193646E-1,1.677061E-1,-2.7399275E-2,-3.8061857E-1,2.8129514E-2,-8.98898E-2,2.332868E-1,6.4015515E-2],"split_indices":[13,10,5,2,11,11,6,8,3,1,8,10,11,11,3,5,11,6,8,9,10,5,10,0,11,11,6,11,10,2,11,10,11,7,11,5,4,10,5,11,10,0,2,2,11,6,2,12,3,2,0,3,3,2,1,10,1,12,4,10,1,0,5,0,0,0,0,0,0,0,0,0,0,0,0,0,0,0,0,0,0,0,0,0,0,0,0,0,0,0,0,0,0,0,0,0,0,0,0,0,0,0,0,0,0,0,0,0,0,0,0,0,0,0,0,0,0,0,0,0,0,0,0,0,0],"split_type":[0,0,0,0,0,0,0,0,0,0,0,0,0,0,0,0,0,0,0,0,0,0,0,0,0,0,0,0,0,0,0,0,0,0,0,0,0,0,0,0,0,0,0,0,0,0,0,0,0,0,0,0,0,0,0,0,0,0,0,0,0,0,0,0,0,0,0,0,0,0,0,0,0,0,0,0,0,0,0,0,0,0,0,0,0,0,0,0,0,0,0,0,0,0,0,0,0,0,0,0,0,0,0,0,0,0,0,0,0,0,0,0,0,0,0,0,0,0,0,0,0,0,0,0,0],"sum_hessian":[1.0456294E4,7.298387E3,3.1579065E3,4.809064E3,2.4893232E3,2.0438289E3,1.1140778E3,5.855903E2,4.2234736E3,5.983421E2,1.8909812E3,5.537898E1,1.9884498E3,6.774527E2,4.366251E2,5.665104E2,1.9079851E1,2.4760721E2,3.9758665E3,2.291431E2,3.69199E2,1.8175664E3,7.3414856E1,4.578112E1,9.597858E0,6.8517444E2,1.3032754E3,6.627353E2,1.4717391E1,4.0117084E2,3.545426E1,4.630113E2,1.0349911E2,3.103923E0,1.5975927E1,2.1252182E2,3.508539E1,3.7746812E3,2.011855E2,4.5358074E1,1.8378502E2,3.0093445E2,6.8264565E1,1.3902983E3,4.27268E2,5.974791E1,1.3666946E1,2.607852E1,1.97026E1,5.339432E0,4.258426E0,4.9385245E2,1.9132202E2,1.2492906E3,5.3984684E1,6.2273114E2,4.000411E1,8.323507E0,6.3938837E0,2.2355857E0,3.9893524E2,1.3211641E0,3.4133095E1,1.0845411E2,3.545572E2,2.5106045E1,7.839306E1,1.0477543E0,2.0561688E0,1.1518136E1,4.4577913E0,1.7536807E2,3.7153744E1,1.6669079E1,1.8416307E1,1.960945E2,3.5785867E3,1.869623E2,1.4223197E1,3.5898773E1,9.459302E0,2.70474E1,1.5673763E2,1.596739E2,1.4126054E2,4.777585E1,2.0488718E1,1.0680803E3,3.2221802E2,3.0180847E1,3.9708716E2,4.8310932E1,1.143698E1,1.1882594E1,1.7843515E0,3.4550097E0,2.262351E1,1.6138496E1,3.5641048E0,2.6340585E0,2.7053735E0,2.9649956E0,1.2934307E0,4.7594864E2,1.7903797E1,1.6911458E2,2.2207445E1,8.48694E2,4.005967E2,2.5626625E1,2.8358059E1,1.03959755E2,5.187714E2,4.44246E0,3.556165E1,6.938429E0,1.3850784E0,1.3945134E0,4.9993706E0,1.1832415E0,1.0523441E0,3.8004382E2,1.8891409E1,1.3555012E1,2.0578085E1],"tree_param":{"num_deleted":"0","num_feature":"14","num_nodes":"125","size_leaf_vector":"1"}},{"base_weights":[-5.1667255E-5,-4.7304783E-2,7.890152E-2,-1.1195184E-1,-1.3599813E-2,3.1151885E-2,1.1344737E-1,-1.7153017E-1,-3.482968E-2,-2.0577417E-4,-1.9222221E-1,4.8084486E-2,-1.24373466E-1,7.346477E-1,1.1077837E-1,-2.0714264E-1,8.519696E-2,-5.2456353E-2,4.852714E-1,-1.0802495E-2,1.4843714E-1,-4.504749E-1,2.1311326E-2,2.7601521E-2,1.7688894E-1,-2.9671317E-1,-1.0318125E-1,9.9805677E-1,-5.6017112E-2,-2.647845E-1,1.1396408E-1,-2.218114E-1,4.3851703E-1,-9.924866E-2,3.1482577E-1,-3.115782E-2,-3.357731E-1,-7.683349E-2,6.704095E-1,6.706799E-2,-3.1892E-2,1.7629538E-1,-4.6645173E-1,-7.124298E-1,-3.2831037E-1,4.5989648E-1,-6.383191E-2,3.8744178E-2,-2.8499976E-1,3.347202E-1,9.1487534E-2,-2.5267416E-1,2.0067682E-2,1.0032139E-1,3.2761744E-1,-1.9062957E-2,-7.4412966E-1,1.8300657E-1,1.000161E-1,-5.228996E-2,-1.0006246E-1,2.0768669E-1,-4.4929072E-2,3.162903E-1,-4.36066E-2,2.1647404E-1,6.0068663E-2,-5.51076E-3,-1.5459263E-1,-1.472047E-1,9.536863E-2,-1.7974956E-1,2.3833974E-1,3.3345264E-1,8.678064E-2,-1.0404413E-1,2.4248047E-2,-1.624209E-2,1.8457565E-2,2.6250035E-1,4.6529945E-2,5.0021015E-2,-4.690632E-1,3.3920256E-3,-2.5990745E-1,-1.2277309E-1,1.2442186E-2,3.9882526E-1,-9.921413E-3,-8.6785265E-4,-1.8274863E-1,1.2583202E-2,-3.0629227E-1,-1.3380692E-2,-1.9577307E-1,-2.816699E-2,1.3077691E-1,-1.2378456E-1,6.1805345E-2,-1.0254587E-1,1.1593703E-1,4.3294013E-2,-9.432022E-2,2.6713103E-1,-9.11113E-2,-3.144637E-1,1.1870538E-1,6.1378498E-2,-2.2458728E-2,2.2264317E-2,4.8951004E-2],"categories":[],"categories_nodes":[],"categories_segments":[],"categories_sizes":[],"default_left":[0,0,0,0,0,0,0,0,0,0,0,0,0,0,0,0,0,0,0,0,0,0,0,0,0,0,0,0,0,0,0,0,0,0,0,0,0,0,0,0,0,0,0,0,0,0,0,0,0,0,0,0,0,0,0,0,0,0,0,0,0,0,0,0,0,0,0,0,0,0,0,0,0,0,0,0,0,0,0,0,0,0,0,0,0,0,0,0,0,0,0,0,0,0,0,0,0,0,0,0,0,0,0,0,0,0,0,0,0,0,0],"id":9,"left_children":[1,3,5,7,9,11,13,15,17,19,21,23,25,27,29,31,33,35,37,39,41,43,45,47,49,-1,51,53,-1,55,57,59,61,63,65,67,69,71,73,75,77,79,81,83,85,87,89,91,93,95,97,99,101,-1,-1,103,105,107,109,-1,-1,-1,-1,-1,-1,-1,-1,-1,-1,-1,-1,-1,-1,-1,-1,-1,-1,-1,-1,-1,-1,-1,-1,-1,-1,-1,-1,-1,-1,-1,-1,-1,-1,-1,-1,-1,-1,-1,-1,-1,-1,-1,-1,-1,-1,-1,-1,-1,-1,-1,-1],"loss_changes":[3.849627E1,1.4063804E1,6.369318E0,1.0157871E1,1.0153944E1,4.280444E0,3.6345634E0,1.1424992E1,8.875222E0,6.2219176E0,1.6335289E1,3.8588972E0,2.8233366E0,2.470337E0,2.701622E0,1.047752E1,6.4987965E0,5.6290374E0,3.3546853E0,6.0574822E0,4.5850005E0,4.0555325E0,6.116529E0,4.416416E0,2.6753063E0,0E0,2.896715E0,1.0120249E-1,0E0,2.2333512E0,2.1145077E0,5.6342316E0,3.7885594E0,4.6976304E0,3.037282E0,5.3793573E0,6.7624784E0,4.4633656E0,3.7099304E0,4.5045686E0,6.0350037E0,3.5991669E0,8.36565E0,4.663618E0,2.8081493E0,1.1455582E1,4.5638547E0,4.186847E0,3.8279953E0,3.0820456E0,7.6853414E0,4.177035E0,3.6586266E0,0E0,0E0,3.8018913E0,2.64698E0,2.0807886E0,2.9938354E0,0E0,0E0,0E0,0E0,0E0,0E0,0E0,0E0,0E0,0E0,0E0,0E0,0E0,0E0,0E0,0E0,0E0,0E0,0E0,0E0,0E0,0E0,0E0,0E0,0E0,0E0,0E0,0E0,0E0,0E0,0E0,0E0,0E0,0E0,0E0,0E0,0E0,0E0,0E0,0E0,0E0,0E0,0E0,0E0,0E0,0E0,0E0,0E0,0E0,0E0,0E0,0E0],"parents":[2147483647,0,0,1,1,2,2,3,3,4,4,5,5,6,6,7,7,8,8,9,9,10,10,11,11,12,12,13,13,14,14,15,15,16,16,17,17,18,18,19,19,20,20,21,21,22,22,23,23,24,24,26,26,27,27,29,29,30,30,31,31,32,32,33,33,34,34,35,35,36,36,37,37,38,38,39,39,40,40,41,41,42,42,43,43,44,44,45,45,46,46,47,47,48,48,49,49,50,50,51,51,52,52,55,55,56,56,57,57,58,58],"right_children":[2,4,6,8,10,12,14,16,18,20,22,24,26,28,30,32,34,36,38,40,42,44,46,48,50,-1,52,54,-1,56,58,60,62,64,66,68,70,72,74,76,78,80,82,84,86,88,90,92,94,96,98,100,102,-1,-1,104,106,108,110,-1,-1,-1,-1,-1,-1,-1,-1,-1,-1,-1,-1,-1,-1,-1,-1,-1,-1,-1,-1,-1,-1,-1,-1,-1,-1,-1,-1,-1,-1,-1,-1,-1,-1,-1,-1,-1,-1,-1,-1,-1,-1,-1,-1,-1,-1,-1,-1,-1,-1,-1,-1],"split_conditions":[1.3E2,5.1E1,1.33E2,1.67E2,1E0,1E0,3.8E1,2E0,3.4367912E1,9.2E1,2.523634E1,3E0,4E1,9.6E1,7E1,3E0,7.12E1,1E0,4.3E1,1E0,1.83E2,1.66E2,2E0,1E0,5.5E1,-2.9671317E-1,2.6291723E1,7.03E1,-5.6017112E-2,1.7E2,4.9E1,4.9E1,4.9E1,1.49E2,2.8981144E1,3.2462196E1,2.9060608E1,1.14E2,3.5834194E1,5.23E1,6.1E1,2.1E1,3.0103806E1,1E0,2E0,2.754821E1,4.1E1,1.32E2,5.6E1,4.7E1,5.7E1,6.2E1,5.8E1,1.0032139E-1,3.2761744E-1,2.3733238E1,1.78E2,1E0,6E1,-5.228996E-2,-1.0006246E-1,2.0768669E-1,-4.4929072E-2,3.162903E-1,-4.36066E-2,2.1647404E-1,6.0068663E-2,-5.51076E-3,-1.5459263E-1,-1.472047E-1,9.536863E-2,-1.7974956E-1,2.3833974E-1,3.3345264E-1,8.678064E-2,-1.0404413E-1,2.4248047E-2,-1.624209E-2,1.8457565E-2,2.6250035E-1,4.6529945E-2,5.0021015E-2,-4.690632E-1,3.3920256E-3,-2.5990745E-1,-1.2277309E-1,1.2442186E-2,3.9882526E-1,-9.921413E-3,-8.6785265E-4,-1.8274863E-1,1.2583202E-2,-3.0629227E-1,-1.3380692E-2,-1.9577307E-1,-2.816699E-2,1.3077691E-1,-1.2378456E-1,6.1805345E-2,-1.0254587E-1,1.1593703E-1,4.3294013E-2,-9.432022E-2,2.6713103E-1,-9.11113E-2,-3.144637E-1,1.1870538E-1,6.1378498E-2,-2.2458728E-2,2.2264317E-2,4.8951004E-2],"split_indices":[3,10,3,1,7,7,12,6,11,2,11,5,10,2,4,5,2,8,10,9,1,1,0,8,10,0,11,2,0,1,10,10,10,1,11,11,11,2,11,2,10,12,11,9,5,11,12,3,10,10,10,10,10,0,0,11,1,8,10,0,0,0,0,0,0,0,0,0,0,0,0,0,0,0,0,0,0,0,0,0,0,0,0,0,0,0,0,0,0,0,0,0,0,0,0,0,0,0,0,0,0,0,0,0,0,0,0,0,0,0,0],"split_type":[0,0,0,0,0,0,0,0,0,0,0,0,0,0,0,0,0,0,0,0,0,0,0,0,0,0,0,0,0,0,0,0,0,0,0,0,0,0,0,0,0,0,0,0,0,0,0,0,0,0,0,0,0,0,0,0,0,0,0,0,0,0,0,0,0,0,0,0,0,0,0,0,0,0,0,0,0,0,0,0,0,0,0,0,0,0,0,0,0,0,0,0,0,0,0,0,0,0,0,0,0,0,0,0,0,0,0,0,0,0,0],"sum_hessian":[1.0316545E4,6.454161E3,3.8623845E3,2.2110276E3,4.2431333E3,1.622143E3,2.2402415E3,1.2467024E3,9.643253E2,3.9480862E3,2.9504694E2,1.4634976E3,1.5864537E2,8.410789E0,2.2318308E3,1.0950002E3,1.5170215E2,9.335845E2,3.074084E1,3.6862236E3,2.6186276E2,1.3303796E2,1.6200899E2,1.2637462E3,1.9975134E2,2.7026718E0,1.559427E2,6.4761147E0,1.9346737E0,1.8081617E1,2.213749E3,1.0713174E3,2.3682846E1,8.44427E1,6.7259445E1,8.693411E2,6.424335E1,7.7613397E0,2.2979502E1,7.851118E2,2.9011118E3,2.5119536E2,1.0667404E1,4.0774437E1,9.226352E1,2.5622475E1,1.3638652E2,1.2210964E3,4.2649853E1,6.910966E1,1.3064168E2,6.99942E1,8.59485E1,1.368923E0,5.107192E0,1.2641243E1,5.440375E0,3.7002173E2,1.8437274E3,7.534739E2,3.1784348E2,1.6421957E1,7.260888E0,2.4050026E0,8.20377E1,1.3619877E1,5.363957E1,8.479801E2,2.1361057E1,5.2137028E1,1.2106316E1,5.0476656E0,2.7136736E0,9.763641E0,1.3215861E1,2.4481224E1,7.6063055E2,2.3434216E3,5.576901E2,6.209771E0,2.4498558E2,7.301406E0,3.3659985E0,7.313685E0,3.3460754E1,7.560864E1,1.6654877E1,8.656662E0,1.6965813E1,1.235819E2,1.2804615E1,1.2183779E3,2.7184792E0,2.6463753E1,1.61861E1,1.3214864E1,5.589479E1,2.3704432E1,1.0693725E2,6.183473E1,8.159471E0,6.3083336E1,2.286517E1,2.5059228E0,1.013532E1,4.3580804E0,1.0822945E0,3.4162775E2,2.839398E1,1.3104957E3,5.3323175E2],"tree_param":{"num_deleted":"0","num_feature":"14","num_nodes":"111","size_leaf_vector":"1"}},{"base_weights":[-1.5037984E-4,-1.0141072E-1,2.302096E-2,-2.907409E-1,-7.6350644E-2,8.68931E-4,8.909748E-2,-5.508529E-1,-1.7293404E-1,-1.9379331E-1,-4.3039586E-2,-1.6284134E-2,6.624442E-2,1.3260357E-1,2.7493007E-2,-2.396916E-1,-6.5851516E-1,-3.0455342E-1,2.967923E-2,8.1661487E-1,-2.101532E-1,3.3375633E-1,-7.639228E-2,-2.8026686E-3,-1.769083E-1,-3.2548445E-1,6.895125E-2,5.7981662E-2,1.9656023E-1,6.40117E-1,1.5356193E-2,-7.1854687E-1,-4.4406023E-2,-3.222713E-2,-6.803196E-1,-4.9175233E-1,-1.595613E-1,7.3225284E-1,-9.022228E-2,-2.4701041E-1,6.173683E-1,-2.4292071E-1,4.21499E-2,1.5959424E-1,8.63849E-1,-1.6556017E-1,-1.3168189E-2,-1.9394797E-1,3.5276213E-3,-3.325828E-1,9.52638E-3,1.1335641E-1,2.7316706E-2,1.5895124E-1,-3.7662808E-2,3.3213216E-1,1.3403289E-1,1.8527694E-1,9.4259185E-1,-2.4652007E-1,3.4894884E-2,-3.7047923E-2,-2.5570592E-1,2.2451796E-1,-1.3654181E-1,-1.7066608E-1,-2.5845248E-1,-1.805043E-1,6.777032E-2,7.7935252E-3,-1.7613873E-1,8.954416E-2,3.503875E-1,4.8780493E-2,-9.665678E-2,-7.97538E-2,6.336059E-2,5.753097E-1,-3.2134928E-2,-7.082944E-2,8.035397E-2,-1.2531385E-1,2.9021806E-1,-1.731825E-2,-9.93002E-2,1.8404808E-2,-3.0464267E-2,-3.9722793E-2,-2.395485E-1,2.4319415E-4,1.7177676E-1,-2.2454698E-1,-8.4317364E-2,2.291369E-1,-1.1248177E-2,2.4268966E-2,1.145672E-1,1.0458518E-2,-2.0707631E-1,6.845112E-2,-2.3747616E-2,-2.411662E-1,-6.637106E-3,3.4816124E-2,1.2712929E-1,-1.9196019E-1,4.619899E-2,1.4840522E-1,-2.3502578E-1,3.614646E-1,-6.3700736E-2,-1.02669254E-1,9.1198675E-2,6.469341E-3,1.404463E-1],"categories":[],"categories_nodes":[],"categories_segments":[],"categories_sizes":[],"default_left":[0,0,0,0,0,0,0,0,0,0,0,0,0,0,0,0,0,0,0,0,0,0,0,0,0,0,0,0,0,0,0,0,0,0,0,0,0,0,0,0,0,0,0,0,0,0,0,0,0,0,0,0,0,0,0,0,0,0,0,0,0,0,0,0,0,0,0,0,0,0,0,0,0,0,0,0,0,0,0,0,0,0,0,0,0,0,0,0,0,0,0,0,0,0,0,0,0,0,0,0,0,0,0,0,0,0,0,0,0,0,0,0,0,0,0],"id":10,"left_children":[1,3,5,7,9,11,13,15,17,19,21,23,25,27,29,31,33,35,37,39,41,43,45,47,49,-1,51,53,55,57,59,61,63,-1,65,67,69,71,73,-1,-1,75,77,79,81,83,85,87,89,91,93,95,97,99,101,103,105,107,109,111,113,-1,-1,-1,-1,-1,-1,-1,-1,-1,-1,-1,-1,-1,-1,-1,-1,-1,-1,-1,-1,-1,-1,-1,-1,-1,-1,-1,-1,-1,-1,-1,-1,-1,-1,-1,-1,-1,-1,-1,-1,-1,-1,-1,-1,-1,-1,-1,-1,-1,-1,-1,-1,-1,-1],"loss_changes":[2.3928759E1,8.988365E0,1.214776E1,6.696163E0,6.558098E0,6.972215E0,5.5810966E0,2.1412945E0,4.1158943E0,6.297641E0,1.6474411E1,1.06648855E1,4.1015987E0,5.815878E0,6.4122825E0,1.7648903E0,5.327263E-1,2.45784E0,5.2515097E0,1.4131439E1,3.031845E0,9.70575E0,6.7812586E0,5.5000267E0,1.1071406E1,0E0,2.3821573E0,5.461622E0,5.525381E0,2.1304164E0,4.3474665E0,3.3267212E-1,5.1319838E0,0E0,4.8528862E-1,3.3156538E0,4.3101354E0,1.3681211E0,3.188378E0,0E0,0E0,3.4253635E0,1.2205224E1,3.5534644E0,3.8729897E0,8.885123E0,4.650146E0,5.315094E0,6.8027706E0,4.2438145E0,6.2176538E0,5.4082127E0,3.6362097E0,4.550653E0,3.446088E0,4.043751E0,7.071821E0,2.7662847E0,3.229991E0,3.2127223E0,4.552448E0,0E0,0E0,0E0,0E0,0E0,0E0,0E0,0E0,0E0,0E0,0E0,0E0,0E0,0E0,0E0,0E0,0E0,0E0,0E0,0E0,0E0,0E0,0E0,0E0,0E0,0E0,0E0,0E0,0E0,0E0,0E0,0E0,0E0,0E0,0E0,0E0,0E0,0E0,0E0,0E0,0E0,0E0,0E0,0E0,0E0,0E0,0E0,0E0,0E0,0E0,0E0,0E0,0E0,0E0],"parents":[2147483647,0,0,1,1,2,2,3,3,4,4,5,5,6,6,7,7,8,8,9,9,10,10,11,11,12,12,13,13,14,14,15,15,16,16,17,17,18,18,19,19,20,20,21,21,22,22,23,23,24,24,26,26,27,27,28,28,29,29,30,30,31,31,32,32,34,34,35,35,36,36,37,37,38,38,41,41,42,42,43,43,44,44,45,45,46,46,47,47,48,48,49,49,50,50,51,51,52,52,53,53,54,54,55,55,56,56,57,57,58,58,59,59,60,60],"right_children":[2,4,6,8,10,12,14,16,18,20,22,24,26,28,30,32,34,36,38,40,42,44,46,48,50,-1,52,54,56,58,60,62,64,-1,66,68,70,72,74,-1,-1,76,78,80,82,84,86,88,90,92,94,96,98,100,102,104,106,108,110,112,114,-1,-1,-1,-1,-1,-1,-1,-1,-1,-1,-1,-1,-1,-1,-1,-1,-1,-1,-1,-1,-1,-1,-1,-1,-1,-1,-1,-1,-1,-1,-1,-1,-1,-1,-1,-1,-1,-1,-1,-1,-1,-1,-1,-1,-1,-1,-1,-1,-1,-1,-1,-1,-1,-1],"split_conditions":[7.8E1,2.1773842E1,2E0,1.1E2,4.7E1,1.39E2,2E0,1.58E2,5.5E1,2.1952478E1,4.9E1,1E0,8E1,7.42E1,1.49E2,4.4E1,4E1,1.65E2,5.6E1,2.1875E1,5.5E1,1.7E2,5.5E1,4.1E1,2.65625E1,-3.2548445E-1,5.5E1,6.53E1,2.9377583E1,3.0461119E1,1.54E2,1.882711E1,5E1,-3.222713E-2,2.0829996E1,2E0,6.12E1,2.0829996E1,2.0549887E1,-2.4701041E-1,6.173683E-1,1.77E2,5.7E1,7E1,2.2405876E1,4.2E1,2.6813591E1,9.2E1,1.2E2,5.85E1,2.6813591E1,5.4E1,1.14E2,2E0,1.48E2,2.6502117E1,2.9411764E1,6.22E1,4.3283527E1,6.3E1,7.4E1,-3.7047923E-2,-2.5570592E-1,2.2451796E-1,-1.3654181E-1,-1.7066608E-1,-2.5845248E-1,-1.805043E-1,6.777032E-2,7.7935252E-3,-1.7613873E-1,8.954416E-2,3.503875E-1,4.8780493E-2,-9.665678E-2,-7.97538E-2,6.336059E-2,5.753097E-1,-3.2134928E-2,-7.082944E-2,8.035397E-2,-1.2531385E-1,2.9021806E-1,-1.731825E-2,-9.93002E-2,1.8404808E-2,-3.0464267E-2,-3.9722793E-2,-2.395485E-1,2.4319415E-4,1.7177676E-1,-2.2454698E-1,-8.4317364E-2,2.291369E-1,-1.1248177E-2,2.4268966E-2,1.145672E-1,1.0458518E-2,-2.0707631E-1,6.845112E-2,-2.3747616E-2,-2.411662E-1,-6.637106E-3,3.4816124E-2,1.2712929E-1,-1.9196019E-1,4.619899E-2,1.4840522E-1,-2.3502578E-1,3.614646E-1,-6.3700736E-2,-1.02669254E-1,9.1198675E-2,6.469341E-3,1.404463E-1],"split_indices":[4,11,5,3,10,3,6,1,10,11,10,7,4,2,1,10,10,1,10,11,12,1,10,10,11,0,10,2,11,11,1,11,10,0,11,0,2,11,11,0,0,1,12,4,11,12,11,2,2,2,11,10,4,0,1,11,11,2,11,10,12,0,0,0,0,0,0,0,0,0,0,0,0,0,0,0,0,0,0,0,0,0,0,0,0,0,0,0,0,0,0,0,0,0,0,0,0,0,0,0,0,0,0,0,0,0,0,0,0,0,0,0,0,0,0],"split_type":[0,0,0,0,0,0,0,0,0,0,0,0,0,0,0,0,0,0,0,0,0,0,0,0,0,0,0,0,0,0,0,0,0,0,0,0,0,0,0,0,0,0,0,0,0,0,0,0,0,0,0,0,0,0,0,0,0,0,0,0,0,0,0,0,0,0,0,0,0,0,0,0,0,0,0,0,0,0,0,0,0,0,0,0,0,0,0,0,0,0,0,0,0,0,0,0,0,0,0,0,0,0,0,0,0,0,0,0,0,0,0,0,0,0,0],"sum_hessian":[1.0196348E4,1.8981084E3,8.298239E3,2.2063063E2,1.6774778E3,6.2155137E3,2.0827263E3,6.763028E1,1.5300035E2,3.6959668E2,1.3078811E3,4.9242515E3,1.2912623E3,1.2199938E3,8.6273236E2,1.8214314E1,4.941597E1,9.244447E1,6.0555874E1,5.109534E0,3.6448715E2,1.0562257E2,1.2022585E3,4.543892E3,3.8035928E2,2.0911536E0,1.2891711E3,5.6393036E2,6.560635E2,1.5754579E1,8.469778E2,4.500145E0,1.3714168E1,2.1063435E0,4.7309628E1,3.9305573E1,5.3138897E1,8.083392E0,5.247248E1,2.3462875E0,2.7632463E0,3.22624E2,4.1863144E1,8.048144E1,2.5141129E1,4.9811914E2,7.041394E2,1.447092E2,4.3991826E3,2.0685213E2,1.7350716E2,6.229953E2,6.6617584E2,2.740064E2,2.8992392E2,2.0571654E2,4.5034695E2,6.9365015E0,8.818077E0,5.7999245E1,7.889786E2,1.1791654E0,3.3209794E0,4.3997197E0,9.314448E0,3.1857016E1,1.5452611E1,3.42247E1,5.08087E0,3.771291E1,1.5425986E1,4.8950815E0,3.1883109E0,2.5250574E1,2.7221909E1,3.0751447E2,1.5109527E1,2.2127078E0,3.9650436E1,1.7034521E1,6.344692E1,1.6526228E0,2.3488506E1,3.0237964E2,1.9573949E2,3.8219522E2,3.2194415E2,1.3244612E2,1.2263069E1,4.3792754E3,1.9907347E1,2.1310217E1,1.8554192E2,9.287086E0,1.6422006E2,5.5697107E2,6.602425E1,6.601856E2,5.990211E0,2.1232481E2,6.1681606E1,4.754398E0,2.8516953E2,6.1934593E1,1.4378195E2,1.0544258E1,4.3980267E2,5.628164E0,1.3083375E0,7.1508327E0,1.6672446E0,4.9731453E1,8.267793E0,7.6644653E2,2.2532053E1],"tree_param":{"num_deleted":"0","num_feature":"14","num_nodes":"115","size_leaf_vector":"1"}},{"base_weights":[-3.5077028E-4,-8.112067E-2,1.5609131E-2,-2.4624322E-1,-5.4171138E-2,6.9801216E-3,1.20791174E-1,-3.3720362E-1,-8.9693144E-2,8.4086716E-1,-5.8686987E-2,-9.705834E-3,5.698949E-2,1.0405409E-1,6.2895155E-1,-2.6089713E-1,-5.3620654E-1,-3.4561228E-2,-8.191166E-1,-8.87177E-2,1.3256269E0,-7.845833E-2,1.3053492E-1,6.3470146E-4,-1.2659213E-1,7.028747E-2,-4.9044274E-2,1.3863248E-1,-4.0850022E-1,7.798842E-1,-4.302549E-1,-4.9832386E-1,-1.116827E-1,-6.1113113E-1,-1.3573167E-1,-1.6080682E-1,1.7891605E-1,2.8715506E-3,-3.0590367E-1,1.5913268E0,8.265609E-2,-9.432314E-2,1.46801E-1,6.154707E-1,3.4116197E-2,5.4299276E-2,-1.4120499E-2,-4.0528202E-1,-8.261534E-2,3.810765E-3,9.635465E-2,5.882086E-3,-2.8157967E-1,1.730856E-1,-2.5109624E-2,-4.855098E-1,2.3357156E-1,9.0629274E-1,5.69682E-2,3.329913E-2,-2.2324668E-1,4.459646E-2,-1.8417078E-1,1.7483242E-1,-5.7679888E-2,-1.945717E-1,7.2714254E-2,-2.6607114E-1,1.7596215E-1,1.4510588E-1,-7.457583E-2,1.18399665E-1,-6.0877506E-2,5.579418E-1,1.3339843E-1,-3.550323E-2,2.7949044E-2,1.1710778E-1,-4.4000857E-2,3.0358395E-1,-1.3001435E-1,-5.482423E-3,2.6876235E-1,3.2565868E-3,5.614226E-2,-5.0108596E-3,1.0634432E-1,-1.4569035E-1,1.11029394E-1,-3.0284606E-2,1.5515324E-1,-2.3319092E-2,4.823681E-2,-6.892986E-2,3.1244168E-2,1.7827077E-1,-4.714616E-3,-2.7847174E-1,-2.0497367E-2,2.1061182E-2,8.634733E-2,3.2249093E-2,-1.6754052E-1,-2.2933064E-1,-3.8083114E-2,2.9917842E-1,1.324488E-1,-1.1969842E-1,1.8072523E-1],"categories":[],"categories_nodes":[],"categories_segments":[],"categories_sizes":[],"default_left":[0,0,0,0,0,0,0,0,0,0,0,0,0,0,0,0,0,0,0,0,0,0,0,0,0,0,0,0,0,0,0,0,0,0,0,0,0,0,0,0,0,0,0,0,0,0,0,0,0,0,0,0,0,0,0,0,0,0,0,0,0,0,0,0,0,0,0,0,0,0,0,0,0,0,0,0,0,0,0,0,0,0,0,0,0,0,0,0,0,0,0,0,0,0,0,0,0,0,0,0,0,0,0,0,0,0,0,0,0],"id":11,"left_children":[1,3,5,7,9,11,13,15,17,19,21,23,25,27,29,31,33,35,37,-1,39,41,43,45,47,49,51,53,55,57,59,61,63,65,67,69,71,-1,-1,73,-1,75,77,79,81,83,85,87,89,91,93,95,97,99,101,103,-1,105,107,-1,-1,-1,-1,-1,-1,-1,-1,-1,-1,-1,-1,-1,-1,-1,-1,-1,-1,-1,-1,-1,-1,-1,-1,-1,-1,-1,-1,-1,-1,-1,-1,-1,-1,-1,-1,-1,-1,-1,-1,-1,-1,-1,-1,-1,-1,-1,-1,-1,-1],"loss_changes":[1.3047221E1,7.4179735E0,7.6697874E0,3.3023129E0,5.857244E0,6.519046E0,5.383895E0,2.102375E0,3.4851828E0,4.4024563E0,5.3625793E0,7.0806894E0,2.7593431E0,1.1071327E1,3.5699816E0,3.7946892E0,1.1166401E0,2.2460823E0,1.022852E0,0E0,1.0361271E0,4.64514E0,6.324834E0,4.263243E0,5.8020115E0,3.009777E0,2.7910213E0,3.2930183E0,3.991722E0,1.599102E0,6.208123E-1,3.206047E0,3.9190207E0,1.2243166E0,4.63619E0,3.07483E0,2.6378183E0,0E0,0E0,4.0701485E-1,0E0,5.466161E0,6.179828E0,9.774543E0,5.1754265E0,6.698875E0,4.0256042E0,4.206894E0,4.58815E0,6.2888885E0,3.194891E0,2.2666287E0,5.6939497E0,5.6665087E0,7.2890377E0,3.6772814E0,0E0,2.0697784E-1,1.1743983E0,0E0,0E0,0E0,0E0,0E0,0E0,0E0,0E0,0E0,0E0,0E0,0E0,0E0,0E0,0E0,0E0,0E0,0E0,0E0,0E0,0E0,0E0,0E0,0E0,0E0,0E0,0E0,0E0,0E0,0E0,0E0,0E0,0E0,0E0,0E0,0E0,0E0,0E0,0E0,0E0,0E0,0E0,0E0,0E0,0E0,0E0,0E0,0E0,0E0,0E0],"parents":[2147483647,0,0,1,1,2,2,3,3,4,4,5,5,6,6,7,7,8,8,9,9,10,10,11,11,12,12,13,13,14,14,15,15,16,16,17,17,18,18,20,20,21,21,22,22,23,23,24,24,25,25,26,26,27,27,28,28,29,29,30,30,31,31,32,32,33,33,34,34,35,35,36,36,39,39,41,41,42,42,43,43,44,44,45,45,46,46,47,47,48,48,49,49,50,50,51,51,52,52,53,53,54,54,55,55,57,57,58,58],"right_children":[2,4,6,8,10,12,14,16,18,20,22,24,26,28,30,32,34,36,38,-1,40,42,44,46,48,50,52,54,56,58,60,62,64,66,68,70,72,-1,-1,74,-1,76,78,80,82,84,86,88,90,92,94,96,98,100,102,104,-1,106,108,-1,-1,-1,-1,-1,-1,-1,-1,-1,-1,-1,-1,-1,-1,-1,-1,-1,-1,-1,-1,-1,-1,-1,-1,-1,-1,-1,-1,-1,-1,-1,-1,-1,-1,-1,-1,-1,-1,-1,-1,-1,-1,-1,-1,-1,-1,-1,-1,-1,-1],"split_conditions":[1.19E2,2.2038567E1,6.3E1,5.5E1,6E1,1.35E2,1.67E2,1.7E2,6.53E1,4.8E1,1.74E2,1E0,3E0,9.1E1,3.912591E1,5.15E1,1.79E2,1.66E2,2.0829996E1,-8.87177E-2,5.7E1,3E0,1.75E2,1E0,6.382E1,1.6E2,9.65E1,1.71E2,1E0,1.72E2,1.02E2,1E0,1.58E2,8.6E1,3.7E1,1.52E2,2.1096191E1,2.8715506E-3,-3.0590367E-1,2E0,8.265609E-2,2E0,3E0,5.6E1,4.1E1,2.9396221E1,9.6E1,2.4609734E1,1.09E2,5.8E1,5.62E1,2.2038567E1,3.5204475E1,1.63E2,2E0,6.4E1,2.3357156E-1,3E0,2E0,3.329913E-2,-2.2324668E-1,4.459646E-2,-1.8417078E-1,1.7483242E-1,-5.7679888E-2,-1.945717E-1,7.2714254E-2,-2.6607114E-1,1.7596215E-1,1.4510588E-1,-7.457583E-2,1.18399665E-1,-6.0877506E-2,5.579418E-1,1.3339843E-1,-3.550323E-2,2.7949044E-2,1.1710778E-1,-4.4000857E-2,3.0358395E-1,-1.3001435E-1,-5.482423E-3,2.6876235E-1,3.2565868E-3,5.614226E-2,-5.0108596E-3,1.0634432E-1,-1.4569035E-1,1.11029394E-1,-3.0284606E-2,1.5515324E-1,-2.3319092E-2,4.823681E-2,-6.892986E-2,3.1244168E-2,1.7827077E-1,-4.714616E-3,-2.7847174E-1,-2.0497367E-2,2.1061182E-2,8.634733E-2,3.2249093E-2,-1.6754052E-1,-2.2933064E-1,-3.8083114E-2,2.9917842E-1,1.324488E-1,-1.1969842E-1,1.8072523E-1],"split_indices":[3,11,10,10,4,3,3,1,2,10,1,7,6,4,11,2,1,1,11,0,10,5,1,9,2,1,2,1,8,1,2,9,1,4,12,1,11,0,0,5,0,6,6,10,12,11,4,11,2,10,2,11,11,1,6,10,0,5,5,0,0,0,0,0,0,0,0,0,0,0,0,0,0,0,0,0,0,0,0,0,0,0,0,0,0,0,0,0,0,0,0,0,0,0,0,0,0,0,0,0,0,0,0,0,0,0,0,0,0],"split_type":[0,0,0,0,0,0,0,0,0,0,0,0,0,0,0,0,0,0,0,0,0,0,0,0,0,0,0,0,0,0,0,0,0,0,0,0,0,0,0,0,0,0,0,0,0,0,0,0,0,0,0,0,0,0,0,0,0,0,0,0,0,0,0,0,0,0,0,0,0,0,0,0,0,0,0,0,0,0,0,0,0,0,0,0,0,0,0,0,0,0,0,0,0,0,0,0,0,0,0,0,0,0,0,0,0,0,0,0,0],"sum_hessian":[1.0119364E4,1.6689677E3,8.450397E3,2.3303023E2,1.4359374E3,7.810684E3,6.397129E2,1.4666145E2,8.636877E1,6.278805E0,1.4296586E3,5.8571973E3,1.9534867E3,6.204811E2,1.9231781E1,1.0768233E2,3.897913E1,8.127328E1,5.095485E0,1.9938574E0,4.2849474E0,1.2949388E3,1.3471968E2,5.3820596E3,4.7513806E2,1.7360953E3,2.1739136E2,5.8195056E2,3.853052E1,1.7063946E1,2.1678348E0,4.0654354E1,6.702798E1,3.239277E1,6.5863605E0,5.1226074E1,3.0047205E1,1.1784809E0,3.9170043E0,3.0083687E0,1.2765785E0,1.2102811E3,8.465777E1,2.1450676E1,1.13269005E2,1.1601006E3,4.221959E3,6.3637627E1,4.1150043E2,4.893352E2,1.2467601E3,1.7664207E2,4.0749287E1,4.8074045E2,1.0121012E2,3.673819E1,1.7923341E0,1.4308338E1,2.7556076E0,1.0330184E0,1.1348165E0,6.118493E0,3.4535862E1,6.321168E0,6.0706806E1,3.1261528E1,1.131241E0,3.1168559E0,3.4695046E0,5.599939E0,4.5626137E1,1.9177734E1,1.0869472E1,1.9336908E0,1.0746778E0,1.0731561E3,1.3712495E2,4.6082577E1,3.857519E1,1.5591958E1,5.8587174E0,1.0770013E2,5.5688787E0,8.750194E2,2.8508118E2,4.193534E3,2.8424578E1,5.800071E1,5.636917E0,4.0010254E2,1.1397894E1,3.223818E2,1.669534E2,2.8431036E1,1.2183291E3,5.3158073E0,1.7132626E2,9.27419E0,3.1475098E1,2.5431671E2,2.2642372E2,8.169669E1,1.951343E1,2.0027237E1,1.671095E1,1.100825E1,3.3000877E0,1.6471726E0,1.1084352E0],"tree_param":{"num_deleted":"0","num_feature":"14","num_nodes":"109","size_leaf_vector":"1"}},{"base_weights":[-1.728707E-4,-5.957356E-2,1.3223131E-2,-4.8647143E-2,-2.988121E-1,-2.2132995E-3,5.952266E-2,-2.826083E-1,-3.8586766E-2,-2.4405038E-1,-1.0141368E0,5.0514784E-2,-1.6059063E-2,5.6820214E-2,7.0777065E-1,-3.7603047E-1,8.8954E-2,-5.4066986E-2,1.1755281E-1,-2.999028E-1,2.0576699E-1,-3.541338E-1,-8.3398715E-2,-6.3312304E-1,5.6538407E-2,-2.2965886E-2,1.11958854E-1,3.1272214E-2,1.1504306E-1,-1.12555385E-1,9.1292125E-1,-5.075709E-1,-8.7312676E-2,-1.05013154E-1,2.7328572E-1,-9.133643E-2,4.170062E-2,2.0983034E-1,-2.1705657E-1,1.8743758E-1,-3.2528108E-1,9.505321E-1,-4.229118E-1,-7.9856956E-1,7.243109E-2,-2.434334E-1,6.967411E-2,-2.174376E-2,-1.2869893E0,4.918079E-1,5.3035E-2,1.2830763E-1,1.1203262E-3,1.232679E-1,-7.1881795E-1,3.6933652E-1,2.7322826E-1,4.3448254E-2,-1.8624336E-1,1.3064556E-1,-1.3699552E-1,4.893266E-2,-1.8075973E-1,-3.8020167E-2,-8.873879E-3,2.3602294E-2,-8.105736E-2,4.0055238E-2,1.944003E-1,-1.2782118E-1,1.312589E-1,-1.4969043E-1,-4.4200778E-2,3.995647E-1,1.0202623E-1,-2.3229335E-1,1.09895684E-1,3.875925E-2,-3.2009923E-1,1.2644193E-2,-2.3971409E-1,-6.283753E-2,2.5255213E-2,-1.1669329E-1,-5.6933044E-3,-4.3346828E-1,-1.12984546E-1,-2.6848236E-1,1.963224E-1,4.777663E-2,-3.0898651E-2,-4.490748E-2,5.9105612E-2,-1.0885616E-3,2.27437E-1,-1.380464E-1,3.9663468E-2,-2.913056E-1,8.617765E-2,-1.7949699E-1,2.4984093E-1],"categories":[],"categories_nodes":[],"categories_segments":[],"categories_sizes":[],"default_left":[0,0,0,0,0,0,0,0,0,0,0,0,0,0,0,0,0,0,0,0,0,0,0,0,0,0,0,0,0,0,0,0,0,0,0,0,0,0,0,0,0,0,0,0,0,0,0,0,0,0,0,0,0,0,0,0,0,0,0,0,0,0,0,0,0,0,0,0,0,0,0,0,0,0,0,0,0,0,0,0,0,0,0,0,0,0,0,0,0,0,0,0,0,0,0,0,0,0,0,0,0],"id":12,"left_children":[1,3,5,7,9,11,13,15,17,19,21,23,25,27,29,31,33,35,37,39,41,-1,-1,43,45,47,49,51,53,-1,55,57,59,61,-1,63,65,67,69,-1,71,73,75,77,-1,79,81,83,85,87,89,91,93,95,97,-1,99,-1,-1,-1,-1,-1,-1,-1,-1,-1,-1,-1,-1,-1,-1,-1,-1,-1,-1,-1,-1,-1,-1,-1,-1,-1,-1,-1,-1,-1,-1,-1,-1,-1,-1,-1,-1,-1,-1,-1,-1,-1,-1,-1,-1],"loss_changes":[8.000806E0,4.8220553E0,5.8638206E0,4.1566973E0,2.9105263E0,4.4935665E0,3.55365E0,2.5618987E0,4.112462E0,1.9761801E0,3.3490276E-1,5.307278E0,4.3128853E0,3.0368557E0,2.2152748E0,2.1734886E0,2.5579689E0,5.5226703E0,4.7866106E0,1.8035254E0,4.6205635E0,0E0,0E0,1.8224411E0,5.0206122E0,7.11843E0,5.563057E0,4.160427E0,4.361411E0,0E0,1.1654572E0,3.0384521E0,3.9614072E0,1.8846625E0,0E0,2.4301558E0,5.0243993E0,3.954948E0,4.794833E0,0E0,1.9981303E0,5.788021E-1,1.8305562E0,2.5543184E0,0E0,8.522063E0,4.9481583E0,4.6883144E0,9.5713615E-2,8.119985E0,3.6178532E0,6.468783E0,3.9065344E0,3.284338E0,1.8600516E0,0E0,2.3204155E0,0E0,0E0,0E0,0E0,0E0,0E0,0E0,0E0,0E0,0E0,0E0,0E0,0E0,0E0,0E0,0E0,0E0,0E0,0E0,0E0,0E0,0E0,0E0,0E0,0E0,0E0,0E0,0E0,0E0,0E0,0E0,0E0,0E0,0E0,0E0,0E0,0E0,0E0,0E0,0E0,0E0,0E0,0E0,0E0],"parents":[2147483647,0,0,1,1,2,2,3,3,4,4,5,5,6,6,7,7,8,8,9,9,10,10,11,11,12,12,13,13,14,14,15,15,16,16,17,17,18,18,19,19,20,20,23,23,24,24,25,25,26,26,27,27,28,28,30,30,31,31,32,32,33,33,35,35,36,36,37,37,38,38,40,40,41,41,42,42,43,43,45,45,46,46,47,47,48,48,49,49,50,50,51,51,52,52,53,53,54,54,56,56],"right_children":[2,4,6,8,10,12,14,16,18,20,22,24,26,28,30,32,34,36,38,40,42,-1,-1,44,46,48,50,52,54,-1,56,58,60,62,-1,64,66,68,70,-1,72,74,76,78,-1,80,82,84,86,88,90,92,94,96,98,-1,100,-1,-1,-1,-1,-1,-1,-1,-1,-1,-1,-1,-1,-1,-1,-1,-1,-1,-1,-1,-1,-1,-1,-1,-1,-1,-1,-1,-1,-1,-1,-1,-1,-1,-1,-1,-1,-1,-1,-1,-1,-1,-1,-1,-1],"split_conditions":[7.8E1,1E0,2E0,5.15E1,7.1E1,1E0,1.87E2,2E0,6.2E1,1.28E2,2E0,1.01E2,1E2,5.9E1,2E0,5.7E1,1.12E2,2E0,1.7E2,4.9E1,1.66E2,-3.541338E-1,-8.3398715E-2,3.082483E1,5.52E1,9.6E1,4.6E1,4.9E1,1.83E2,-1.12555385E-1,2.8305996E1,4.5E1,6E1,1.59E2,2.7328572E-1,5.5E1,6E1,1.67E2,1.76E2,1.8743758E-1,2.6037495E1,5.4E1,1.31E2,6.01E1,7.243109E-2,2.1773842E1,4.2E1,4.9E1,5.8E1,1.55E2,1.66E2,1.59E2,1.31E2,2.7E1,1E0,3.6933652E-1,3.111111E1,4.3448254E-2,-1.8624336E-1,1.3064556E-1,-1.3699552E-1,4.893266E-2,-1.8075973E-1,-3.8020167E-2,-8.873879E-3,2.3602294E-2,-8.105736E-2,4.0055238E-2,1.944003E-1,-1.2782118E-1,1.312589E-1,-1.4969043E-1,-4.4200778E-2,3.995647E-1,1.0202623E-1,-2.3229335E-1,1.09895684E-1,3.875925E-2,-3.2009923E-1,1.2644193E-2,-2.3971409E-1,-6.283753E-2,2.5255213E-2,-1.1669329E-1,-5.6933044E-3,-4.3346828E-1,-1.12984546E-1,-2.6848236E-1,1.963224E-1,4.777663E-2,-3.0898651E-2,-4.490748E-2,5.9105612E-2,-1.0885616E-3,2.27437E-1,-1.380464E-1,3.9663468E-2,-2.913056E-1,8.617765E-2,-1.7949699E-1,2.4984093E-1],"split_indices":[4,8,5,2,4,9,1,5,10,3,0,3,4,10,0,10,3,0,1,2,1,0,0,11,2,4,10,10,1,0,11,2,10,1,0,10,10,1,1,0,11,10,3,2,0,11,10,2,10,1,1,1,2,12,8,0,11,0,0,0,0,0,0,0,0,0,0,0,0,0,0,0,0,0,0,0,0,0,0,0,0,0,0,0,0,0,0,0,0,0,0,0,0,0,0,0,0,0,0,0,0],"split_type":[0,0,0,0,0,0,0,0,0,0,0,0,0,0,0,0,0,0,0,0,0,0,0,0,0,0,0,0,0,0,0,0,0,0,0,0,0,0,0,0,0,0,0,0,0,0,0,0,0,0,0,0,0,0,0,0,0,0,0,0,0,0,0,0,0,0,0,0,0,0,0,0,0,0,0,0,0,0,0,0,0,0,0,0,0,0,0,0,0,0,0,0,0,0,0,0,0,0,0,0,0],"sum_hessian":[1.0052662E4,1.8492504E3,8.203412E3,1.7696317E3,7.9618645E1,6.1529487E3,2.0504631E3,7.1840454E1,1.6977913E3,7.5202675E1,4.4159713E0,1.279115E3,4.873834E3,2.0430338E3,7.4294405E0,5.739705E1,1.4443404E1,1.545244E3,1.5254716E2,6.7192825E1,8.009847E0,3.1098363E0,1.3061349E0,1.0262727E1,1.2688523E3,4.62512E3,2.487139E2,1.4210282E3,6.2200555E2,1.0512495E0,6.378191E0,3.8911068E1,1.8485981E1,1.2391602E1,2.0518029E0,1.1123876E3,4.328565E2,1.1986427E2,3.2682888E1,1.1639367E0,6.602889E1,3.4320788E0,4.5777683E0,8.7031765E0,1.55955E0,5.2496254E1,1.216356E3,4.6216685E3,3.451278E0,3.24138E1,2.163001E2,3.3610693E2,1.0849213E3,6.167742E2,5.231418E0,3.642008E0,2.7361832E0,5.7138085E0,3.3197258E1,7.5789366E0,1.0907045E1,8.488924E0,3.9026773E0,7.064284E2,4.059591E2,3.8764972E2,4.520677E1,1.0319609E2,1.6668177E1,2.5037376E1,7.645511E0,3.2501293E1,3.35276E1,1.3850205E0,2.047058E0,3.1805534E0,1.3972147E0,2.0693998E0,6.6337767E0,3.5284473E1,1.721178E1,5.94406E1,1.1569154E3,3.350727E1,4.588161E3,2.4407802E0,1.0104978E0,2.9290655E0,2.9484735E1,1.28679E2,8.762109E1,6.637613E1,2.6973077E2,1.0791467E3,5.7745447E0,8.550453E0,6.082237E2,4.2107296E0,1.0206885E0,1.0427805E0,1.6934025E0],"tree_param":{"num_deleted":"0","num_feature":"14","num_nodes":"101","size_leaf_vector":"1"}},{"base_weights":[-2.197253E-4,-1.2644112E-1,3.9105704E-3,-1.5515766E-2,-2.4618307E-1,-2.6152884E-3,6.94177E-2,-9.414805E-2,4.769265E-1,-8.0471444E-1,-1.8258497E-1,-1.0356006E-2,6.640813E-2,1.721137E-1,4.5567155E-2,-1.9342038E-1,4.712996E-1,-5.6695086E-1,6.4971054E-1,-9.2802894E-1,-4.9657174E-3,-8.214989E-2,-6.327128E-1,-5.0779968E-3,-1.2012832E-1,1.9757079E-1,3.552013E-2,-8.311409E-1,2.137762E-1,2.2839215E-1,1.943868E-2,-1.622332E-1,-4.6362722E-1,-2.0191933E-1,5.651295E-1,3.1724986E-2,-2.6468816E-1,1.0965706E0,2.8641307E-1,-3.0478474E-1,-8.51156E-2,-1.4502287E-1,6.4318174E-1,-3.5293528E-1,-1.2608806E0,-2.898349E-2,1.7299956E-2,-4.2190313E-1,-4.0862054E-2,8.229017E-2,3.6834687E-1,1.1738445E-1,-4.1602585E-2,6.881283E-2,-1.0768783E0,4.6293056E-1,1.3829033E-1,1.8772155E-2,5.479007E-1,-2.4661939E-1,5.509684E-2,6.629328E-2,-7.346261E-2,2.0881765E-1,-6.753015E-2,4.2384684E-1,-2.7324582E-2,-8.9446336E-2,1.5975414E-1,-1.0474225E-2,-1.58213E-1,2.977509E-1,8.65904E-2,-1.6965944E-1,1.1023774E-1,-5.373017E-1,-1.880313E-1,-8.395429E-3,-4.2677963E-1,3.6513933E-3,4.6040583E-2,-5.441625E-2,-1.787489E-1,5.54742E-2,-3.0143635E-2,-1.9309217E-2,7.3526435E-2,-1.8034555E-1,1.21252045E-1,5.7789207E-2,2.6572952E-3,-2.1006405E-2,8.70807E-2,-4.8556402E-1,-1.1756183E-1,-1.0328993E-1,1.7900836E-1,-1.3511182E-1,5.5200417E-2,5.9442125E-2,-1.068349E-1,-1.0968673E-3,2.569677E-1,-2.1994166E-1,-1.9946111E-2,1.3224673E-1,9.409396E-3],"categories":[],"categories_nodes":[],"categories_segments":[],"categories_sizes":[],"default_left":[0,0,0,0,0,0,0,0,0,0,0,0,0,0,0,0,0,0,0,0,0,0,0,0,0,0,0,0,0,0,0,0,0,0,0,0,0,0,0,0,0,0,0,0,0,0,0,0,0,0,0,0,0,0,0,0,0,0,0,0,0,0,0,0,0,0,0,0,0,0,0,0,0,0,0,0,0,0,0,0,0,0,0,0,0,0,0,0,0,0,0,0,0,0,0,0,0,0,0,0,0,0,0,0,0,0,0],"id":13,"left_children":[1,3,5,7,9,11,13,15,17,19,21,23,25,27,29,31,33,35,37,39,-1,41,43,45,47,49,51,53,55,57,59,61,-1,-1,63,-1,-1,65,67,-1,-1,69,71,73,75,77,79,81,83,85,87,89,91,-1,93,95,97,99,101,103,105,-1,-1,-1,-1,-1,-1,-1,-1,-1,-1,-1,-1,-1,-1,-1,-1,-1,-1,-1,-1,-1,-1,-1,-1,-1,-1,-1,-1,-1,-1,-1,-1,-1,-1,-1,-1,-1,-1,-1,-1,-1,-1,-1,-1,-1,-1],"loss_changes":[5.217747E0,4.208394E0,4.1431704E0,6.460782E0,5.2678175E0,4.710134E0,2.142777E0,8.1582E0,4.513007E0,1.4706516E0,6.1934214E0,4.5917997E0,3.5944614E0,7.079605E0,3.4058611E0,4.9338527E0,2.7161765E0,8.9885104E-1,2.962306E0,4.596653E-1,0E0,5.2964096E0,3.9577684E0,4.0468254E0,8.679943E0,3.301198E0,4.5553155E0,2.0161252E0,2.9327326E0,5.962404E0,5.949996E0,3.8957176E0,0E0,0E0,2.293089E0,0E0,0E0,3.395092E0,1.9549301E0,0E0,0E0,4.4362173E0,8.6348295E-1,3.0749795E0,1.3417597E0,5.0508213E0,2.7268834E0,3.0514116E0,3.909311E0,2.4585118E0,2.6017027E0,2.8555093E0,3.527415E0,0E0,1.4758496E0,4.159964E0,3.4118068E0,3.7611492E0,6.0115223E0,6.4482384E0,5.044714E0,0E0,0E0,0E0,0E0,0E0,0E0,0E0,0E0,0E0,0E0,0E0,0E0,0E0,0E0,0E0,0E0,0E0,0E0,0E0,0E0,0E0,0E0,0E0,0E0,0E0,0E0,0E0,0E0,0E0,0E0,0E0,0E0,0E0,0E0,0E0,0E0,0E0,0E0,0E0,0E0,0E0,0E0,0E0,0E0,0E0,0E0],"parents":[2147483647,0,0,1,1,2,2,3,3,4,4,5,5,6,6,7,7,8,8,9,9,10,10,11,11,12,12,13,13,14,14,15,15,16,16,17,17,18,18,19,19,21,21,22,22,23,23,24,24,25,25,26,26,27,27,28,28,29,29,30,30,31,31,34,34,37,37,38,38,41,41,42,42,43,43,44,44,45,45,46,46,47,47,48,48,49,49,50,50,51,51,52,52,54,54,55,55,56,56,57,57,58,58,59,59,60,60],"right_children":[2,4,6,8,10,12,14,16,18,20,22,24,26,28,30,32,34,36,38,40,-1,42,44,46,48,50,52,54,56,58,60,62,-1,-1,64,-1,-1,66,68,-1,-1,70,72,74,76,78,80,82,84,86,88,90,92,-1,94,96,98,100,102,104,106,-1,-1,-1,-1,-1,-1,-1,-1,-1,-1,-1,-1,-1,-1,-1,-1,-1,-1,-1,-1,-1,-1,-1,-1,-1,-1,-1,-1,-1,-1,-1,-1,-1,-1,-1,-1,-1,-1,-1,-1,-1,-1,-1,-1,-1,-1],"split_conditions":[4.1E1,4E1,1.49E2,2E0,5.78E1,3E0,1E0,2E0,3.1E1,2E0,2E0,1E0,1.57E2,5.52E1,6.22E1,7.1E1,1.54E2,2.393899E1,2E0,2.265625E1,-4.9657174E-3,5.7E1,5E1,1.65E2,6.64E1,1.55E2,3E0,4.9E1,5.1E1,5.92E1,2.4772097E1,2.2582708E1,-4.6362722E-1,-2.0191933E-1,3E0,3.1724986E-2,-2.6468816E-1,3E0,1.16E2,-3.0478474E-1,-8.51156E-2,2.9411764E1,7.21E1,8.1E1,7.8E1,1.46E2,3.4894398E1,2E0,7.12E1,2E0,4.5E1,2E0,6.3E1,6.881283E-2,5.15E1,4.3E1,5.2E1,1.61E2,5.4E1,1.67E2,2.5510204E1,6.629328E-2,-7.346261E-2,2.0881765E-1,-6.753015E-2,4.2384684E-1,-2.7324582E-2,-8.9446336E-2,1.5975414E-1,-1.0474225E-2,-1.58213E-1,2.977509E-1,8.65904E-2,-1.6965944E-1,1.1023774E-1,-5.373017E-1,-1.880313E-1,-8.395429E-3,-4.2677963E-1,3.6513933E-3,4.6040583E-2,-5.441625E-2,-1.787489E-1,5.54742E-2,-3.0143635E-2,-1.9309217E-2,7.3526435E-2,-1.8034555E-1,1.21252045E-1,5.7789207E-2,2.6572952E-3,-2.1006405E-2,8.70807E-2,-4.8556402E-1,-1.1756183E-1,-1.0328993E-1,1.7900836E-1,-1.3511182E-1,5.5200417E-2,5.9442125E-2,-1.068349E-1,-1.0968673E-3,2.569677E-1,-2.1994166E-1,-1.9946111E-2,1.3224673E-1,9.409396E-3],"split_indices":[10,10,3,6,2,5,9,5,12,5,5,8,1,2,2,12,1,11,5,11,0,12,12,1,2,1,6,2,10,2,11,11,0,0,5,0,0,6,3,0,0,11,2,4,2,3,11,0,2,6,10,0,10,0,2,10,10,1,10,1,11,0,0,0,0,0,0,0,0,0,0,0,0,0,0,0,0,0,0,0,0,0,0,0,0,0,0,0,0,0,0,0,0,0,0,0,0,0,0,0,0,0,0,0,0,0,0],"split_type":[0,0,0,0,0,0,0,0,0,0,0,0,0,0,0,0,0,0,0,0,0,0,0,0,0,0,0,0,0,0,0,0,0,0,0,0,0,0,0,0,0,0,0,0,0,0,0,0,0,0,0,0,0,0,0,0,0,0,0,0,0,0,0,0,0,0,0,0,0,0,0,0,0,0,0,0,0,0,0,0,0,0,0,0,0,0,0,0,0,0,0,0,0,0,0,0,0,0,0,0,0,0,0,0,0,0,0],"sum_hessian":[1.000655E4,3.1612708E2,9.690422E3,1.6469144E2,1.5143564E2,8.813388E3,8.770347E2,1.4271222E2,2.1979214E1,1.4289472E1,1.3714616E2,7.92543E3,8.879574E2,1.6412537E2,7.1290936E2,1.219586E2,2.0753624E1,2.7974012E0,1.9181812E1,1.2202785E1,2.0866873E0,1.13094406E2,